/* Generated by Edge Impulse
*
* Permission is hereby granted, free of charge, to any person obtaining a copy
* of this software and associated documentation files (the "Software"), to deal
* in the Software without restriction, including without limitation the rights
* to use, copy, modify, merge, publish, distribute, sublicense, and/or sell
* copies of the Software, and to permit persons to whom the Software is
* furnished to do so, subject to the following conditions:
*
* The above copyright notice and this permission notice shall be included in
* all copies or substantial portions of the Software.
*
* THE SOFTWARE IS PROVIDED "AS IS", WITHOUT WARRANTY OF ANY KIND, EXPRESS OR
* IMPLIED, INCLUDING BUT NOT LIMITED TO THE WARRANTIES OF MERCHANTABILITY,
* FITNESS FOR A PARTICULAR PURPOSE AND NONINFRINGEMENT. IN NO EVENT SHALL THE
* AUTHORS OR COPYRIGHT HOLDERS BE LIABLE FOR ANY CLAIM, DAMAGES OR OTHER
* LIABILITY, WHETHER IN AN ACTION OF CONTRACT, TORT OR OTHERWISE, ARISING FROM,
* OUT OF OR IN CONNECTION WITH THE SOFTWARE OR THE USE OR OTHER DEALINGS IN THE
* SOFTWARE.
*/
// Generated on: 19.07.2021 17:00:35

#include <stdio.h>
#include <stdlib.h>
#include <vector>
#include "edge-impulse-sdk/tensorflow/lite/c/builtin_op_data.h"
#include "edge-impulse-sdk/tensorflow/lite/c/common.h"
#include "edge-impulse-sdk/tensorflow/lite/micro/micro_mutable_op_resolver.h"
#include "edge-impulse-sdk/porting/ei_classifier_porting.h"

#if EI_CLASSIFIER_PRINT_STATE
#if defined(__cplusplus) && EI_C_LINKAGE == 1
extern "C" {
    extern void ei_printf(const char *format, ...);
}
#else
extern void ei_printf(const char *format, ...);
#endif
#endif

#if defined __GNUC__
#define ALIGN(X) __attribute__((aligned(X)))
#elif defined _MSC_VER
#define ALIGN(X) __declspec(align(X))
#elif defined __TASKING__
#define ALIGN(X) __align(X)
#endif

using namespace tflite;
using namespace tflite::ops;
using namespace tflite::ops::micro;

namespace {

constexpr int kTensorArenaSize = 1056;

#if defined(EI_CLASSIFIER_ALLOCATION_STATIC)
uint8_t tensor_arena[kTensorArenaSize] ALIGN(16);
#elif defined(EI_CLASSIFIER_ALLOCATION_STATIC_HIMAX)
#pragma Bss(".tensor_arena")
uint8_t tensor_arena[kTensorArenaSize] ALIGN(16);
#pragma Bss()
#elif defined(EI_CLASSIFIER_ALLOCATION_STATIC_HIMAX_GNU)
uint8_t tensor_arena[kTensorArenaSize] ALIGN(16) __attribute__((section(".tensor_arena")));
#else
#define EI_CLASSIFIER_ALLOCATION_HEAP 1
uint8_t* tensor_arena = NULL;
#endif

static uint8_t* tensor_boundary;
static uint8_t* current_location;

template <int SZ, class T> struct TfArray {
  int sz; T elem[SZ];
};
enum used_operators_e {
  OP_FULLY_CONNECTED, OP_SOFTMAX,  OP_LAST
};
struct TensorInfo_t { // subset of TfLiteTensor used for initialization from constant memory
  TfLiteAllocationType allocation_type;
  TfLiteType type;
  void* data;
  TfLiteIntArray* dims;
  size_t bytes;
  TfLiteQuantization quantization;
};
struct NodeInfo_t { // subset of TfLiteNode used for initialization from constant memory
  struct TfLiteIntArray* inputs;
  struct TfLiteIntArray* outputs;
  void* builtin_data;
  used_operators_e used_op_index;
};

TfLiteContext ctx{};
TfLiteTensor tflTensors[11];
TfLiteEvalTensor tflEvalTensors[11];
TfLiteRegistration registrations[OP_LAST];
TfLiteNode tflNodes[4];

const TfArray<2, int> tensor_dimension0 = { 2, { 1,837 } };
const TfArray<1, float> quant0_scale = { 1, { 0.010514706373214722, } };
const TfArray<1, int> quant0_zero = { 1, { -128 } };
const TfLiteAffineQuantization quant0 = { (TfLiteFloatArray*)&quant0_scale, (TfLiteIntArray*)&quant0_zero, 0 };
const ALIGN(8) int32_t tensor_data1[20] = { 10, 0, 155, 177, 20, -131, 30, -1, 101, 0, 0, -156, 10, -124, 9, -155, -156, 87, -185, 19, };
const TfArray<1, int> tensor_dimension1 = { 1, { 20 } };
const TfArray<1, float> quant1_scale = { 1, { 7.0290961957653053e-06, } };
const TfArray<1, int> quant1_zero = { 1, { 0 } };
const TfLiteAffineQuantization quant1 = { (TfLiteFloatArray*)&quant1_scale, (TfLiteIntArray*)&quant1_zero, 0 };
const ALIGN(8) int32_t tensor_data2[10] = { -2, -31, 5, -1, -23, 0, -30, 0, -30, 30, };
const TfArray<1, int> tensor_dimension2 = { 1, { 10 } };
const TfArray<1, float> quant2_scale = { 1, { 4.7510544391116127e-05, } };
const TfArray<1, int> quant2_zero = { 1, { 0 } };
const TfLiteAffineQuantization quant2 = { (TfLiteFloatArray*)&quant2_scale, (TfLiteIntArray*)&quant2_zero, 0 };
const ALIGN(8) int32_t tensor_data3[2] = { 22, -22, };
const TfArray<1, int> tensor_dimension3 = { 1, { 2 } };
const TfArray<1, float> quant3_scale = { 1, { 6.5703759901225567e-05, } };
const TfArray<1, int> quant3_zero = { 1, { 0 } };
const TfLiteAffineQuantization quant3 = { (TfLiteFloatArray*)&quant3_scale, (TfLiteIntArray*)&quant3_zero, 0 };
const ALIGN(8) int8_t tensor_data4[20*837] = { 
  -92, -86, -74, 15, -20, 11, -105, -90, -99, 18, 112, -62, -84, 109, 51, 121, 113, -40, 84, -79, 107, -112, 116, -90, -71, -72, -113, 50, -48, -43, -78, -110, 24, 109, 37, -51, -64, 83, 35, -12, 84, 121, 81, 64, -101, 37, -28, 58, -56, 20, 61, 97, -103, 97, 17, 26, 14, -24, -17, 4, 14, -33, -63, -33, -58, -33, 59, 56, -2, -92, 106, -74, -12, 10, -22, 115, 73, 91, -10, 73, 81, 55, 16, 80, -9, 34, -47, 40, -20, 86, 100, -95, 17, 63, 2, -40, 25, 47, 4, 119, -120, -64, 81, -60, -21, -99, 44, -96, 18, 36, 21, -18, -60, -14, -35, 6, 68, 17, -50, -24, 95, 60, 65, 112, 109, -114, 99, -67, 89, -89, 107, -117, -33, -63, 82, -39, -44, 124, 16, 73, 85, -43, -119, 61, 40, 119, 6, -86, 16, 61, 79, 57, -11, 55, 107, 90, 10, 26, -19, 103, -28, -55, -108, 89, -80, -116, 59, -102, -85, 122, -7, -25, -71, 81, 110, -78, 15, 49, 44, 116, 69, -77, 116, -95, -19, -102, -93, 91, -69, 41, 108, 122, -88, 113, -10, 70, -47, 57, 32, -57, -26, -103, 94, 76, 106, -29, 114, -105, -58, -77, 39, -32, 12, -57, 9, -25, -52, 30, -119, -99, 4, -115, 31, 87, 58, -79, -7, -31, 117, 110, -52, -25, 57, 69, 25, 15, 75, 30, 95, 92, -53, 47, -6, 24, 19, 114, 61, -21, 20, 105, -100, -100, -43, 4, -124, 7, -2, -14, 29, -4, 56, 63, 10, -6, -3, 115, -22, -39, -86, 60, 88, 106, -109, -104, 71, -96, 61, -61, 58, -57, -83, 124, 7, 92, -90, 118, 73, -102, 60, 59, 53, -66, -113, 120, 42, 83, 32, 16, 33, 37, -118, -45, 2, -62, -87, -21, -51, 29, -17, 28, 13, -112, 116, -33, 39, 1, -99, -46, -35, 115, 108, 74, 80, -85, 94, 45, 39, 47, -46, 12, 81, -86, -55, 73, -21, 98, 97, -74, -76, 91, 72, -95, -87, -99, -100, -24, -38, -65, 12, -69, 38, 17, -61, -123, -41, -10, 53, -17, -21, -44, 31, 13, 30, 67, -92, 2, -96, 39, -93, 109, -121, -57, -111, -1, 113, 120, -113, -54, 105, -91, -87, 123, -23, -57, 50, -76, -9, 83, -16, -22, -5, -59, 74, 100, 28, -89, -70, -124, 17, 35, -68, 6, -44, -112, 80, 113, 47, -60, -30, 101, -105, -113, 73, -125, 88, -54, -32, -86, 67, 60, -39, -78, -96, -54, -55, 123, -119, -101, 35, -21, -87, -75, -78, -79, -75, -38, 99, 48, 118, -24, -4, -75, 61, -23, 28, 75, 75, 34, -117, 8, -120, 37, -63, -45, 60, -2, -47, -107, 58, 34, 98, -84, -29, 62, -17, -121, 26, 41, 45, 118, -61, 36, -52, 52, -118, -12, -17, -10, -23, -42, 42, 51, -20, -64, -100, -23, 68, -64, 30, 57, 15, 62, 111, 7, -75, -1, 30, -44, -27, -42, 120, -16, -7, 4, -93, 123, -1, 71, 81, -47, -32, 6, 88, 8, 64, -3, 114, -85, -84, -81, 105, 1, 57, 4, 17, -123, -50, 24, -65, 31, 102, 63, -120, -124, -86, -114, -10, -14, -23, 83, 81, -4, 42, -118, 35, 43, 93, -106, -79, 99, -117, 109, 101, -124, -107, 123, 43, -11, -115, 45, 98, 11, -119, 113, 113, -86, -78, -22, 3, 64, 73, -51, -81, -17, -110, 42, 50, -60, -107, 28, 77, 40, 124, -119, 2, -52, 95, -44, 59, -114, 38, -6, 103, 45, -83, -31, 48, 57, 0, -86, -97, -23, 72, 62, 44, 5, -57, 82, 124, 75, 99, 58, -8, 68, -8, -1, -83, 62, -78, 86, 115, 117, 77, 122, -64, -44, 74, 41, -30, -1, 48, 14, -99, 8, -110, 0, -81, -6, -63, 77, -71, -16, 120, 45, -63, 72, 10, -120, -10, -33, 92, 93, 122, 106, -107, -40, -99, 34, 81, 3, -58, -66, -124, 20, 94, -118, 24, -122, -33, -17, -108, -47, -103, 112, 84, -97, 87, -67, -78, 94, -48, -43, -92, 22, 27, -48, 32, 16, 21, 95, -91, 106, -108, -20, 69, -53, -47, -112, -14, 110, 96, 78, 7, -58, 79, 31, 118, -43, 54, 11, -45, 57, -17, -52, 111, -114, 19, 41, -86, -41, 53, 12, -35, 87, 108, -105, 67, 48, -53, 81, 79, -90, 96, 112, -60, 25, -31, 86, -93, 109, -91, -90, 102, 5, -30, 45, 3, 32, -69, 47, -3, 28, 104, -31, 46, -11, 14, 54, 32, -20, -8, 72, 59, -19, -50, 8, -33, -114, 43, 92, -49, 30, -60, -106, -63, -13, 120, -64, 26, -67, 15, 29, 47, 125, -71, 106, -119, 75, 74, -62, -115, -3, -49, 77, -120, -3, -42, 57, -58, -49, 28, 34, -32, 71, 83, -66, -55, -39, 58, 122, 123, 94, 62, -15, -72, 42, 53, 56, -2, 74, 68, 92, -17, 0, 45, -110, -49, 41, 87, -67, -71, 49, -70, 112, -8, -7, -78, 
  17, 28, 2, -47, 26, 116, 79, 101, -100, 81, 66, -58, -26, -105, -70, -50, -46, -103, 86, 56, -9, -67, -98, -69, 40, -70, 31, 59, -66, 7, 99, 113, -119, -21, -112, 108, -40, 68, 86, -60, -62, 22, 25, 5, -102, -114, 32, -6, -22, -67, 77, 122, -112, -59, 112, -19, -110, 122, -24, -92, 105, 10, -68, 75, -42, -62, 44, -82, 74, -30, -124, 63, -32, -68, 65, 14, -94, -109, 70, -112, 95, -72, -105, -122, -55, -17, -99, 97, -44, -114, 104, -6, -105, -86, -125, 104, 5, 105, -123, -118, -15, 99, -72, 86, -71, 105, -94, 23, -39, -55, -59, 12, 57, -29, 90, -98, -107, -120, -100, 10, 57, -8, 19, -73, 45, -110, -121, 92, 71, -61, 9, -86, -91, -11, -34, 81, 56, 90, -38, 35, 45, 40, -6, 33, -91, -12, -122, 26, 31, 50, 43, -61, -71, 97, -34, -6, -98, -7, 45, -74, -4, -112, 48, 40, -60, 3, 94, -92, 48, 118, 114, -111, 81, -46, -74, 14, -62, 46, -83, -58, -14, 88, -84, 67, -33, 70, 16, -109, 77, -125, 88, 86, -92, 103, -116, -36, -81, 5, 102, 102, -31, -60, -118, -31, 33, -45, -64, 33, -64, 96, -66, 114, 35, 26, -73, -83, 84, -94, 24, -53, 79, -55, 108, -41, -40, 106, 40, -19, -3, 81, 121, -19, -87, -28, 104, -63, 12, -33, -117, 74, 57, -92, 67, 119, 82, 55, -47, -120, -57, 96, -84, 48, -19, 92, 67, -120, -88, 19, 21, 50, 81, 61, 114, -44, 50, 44, 10, 116, 107, 118, 77, -55, -79, -82, -13, 38, 109, -9, -31, -11, 68, -113, 118, 4, 8, -122, -6, 114, 19, -118, 75, 12, 23, 17, -76, 54, -112, -77, -1, 88, 125, 102, -54, 75, 32, 70, 35, 69, 26, -102, -51, -96, 26, -87, 125, 39, -81, -42, 13, -119, 60, -31, 97, 118, -104, -11, -71, 13, -38, 123, 114, -41, -66, -29, 53, 51, -114, -122, -117, 113, 80, 61, -24, 50, 76, -60, -12, 70, 26, -64, 118, -21, 120, -75, -82, 115, -118, -27, 56, -45, 42, 65, 10, 90, -122, -107, -83, -18, 38, -36, 21, -118, 122, 33, -26, -60, -7, -24, 54, -57, -103, 115, -85, 104, -101, 37, -101, -97, -18, 60, -40, -18, -55, 37, 80, 44, 46, -38, 12, -55, -10, -81, 13, 37, 86, -93, 117, 67, 18, 67, 30, -100, -26, -52, -78, -55, 42, -74, -27, 53, -16, 78, 117, -119, 47, -22, -50, 117, 31, -52, 13, -110, -72, -114, -13, -6, -78, 90, -80, -37, 89, -15, 71, 32, -85, -82, -116, -107, -77, -21, -55, -5, -118, 104, 22, -52, 94, -27, 25, -81, 54, -96, 106, 57, -114, -63, -63, 86, 120, 115, -91, 94, -51, -69, -36, -30, -68, -37, 89, 15, 21, -102, -65, 90, -118, -25, -77, 113, 84, 44, -95, -3, 64, 1, 56, -124, -13, 7, 61, 94, 105, 94, -57, -38, 110, 19, 6, 51, 32, -85, -39, 116, 113, -77, 106, 49, -67, -108, -8, 73, 90, 82, -73, -63, -108, 28, 0, 73, 94, 117, 106, -120, 6, -44, 12, -110, 15, 17, -50, -50, 103, 12, 18, -90, -60, 124, -117, 8, -85, -69, 92, -22, 81, -22, 123, 84, -2, 53, -3, 97, -23, -80, 49, 35, 46, 96, 116, -121, 26, 35, -102, 119, 94, 22, 69, 106, -11, 111, 23, 51, 67, 121, -81, 52, 54, 11, 46, 64, -69, -103, -26, 108, 46, 66, -82, -64, -75, -9, 101, 77, 24, 47, 31, -101, -5, 14, -102, 78, 47, 69, 41, -121, -40, -29, -97, -107, 114, 86, -96, 92, 59, 28, -107, -94, -87, 25, -90, -114, -68, 21, -42, -28, 80, 91, -65, -7, -118, 81, 48, -120, 14, -122, -59, 104, -38, -96, -80, 57, 72, 81, -20, 109, 37, 88, 119, 23, -38, 48, 58, -33, -79, -62, -82, -25, -95, 123, -16, 8, 4, 108, 62, 88, -48, 15, 82, -8, -69, -113, 8, 86, -108, 59, -67, -70, -89, -17, -6, 53, 51, 117, 81, -15, 27, -21, 79, 31, 75, 16, -1, -104, 107, 71, 21, 37, -57, -104, 4, -76, -109, 8, -69, 33, 87, -98, -66, 46, -120, -50, -77, 103, -100, -49, 38, -77, -71, -121, 29, -84, 60, -37, -111, -9, -86, 43, -18, -25, -78, -93, -16, -50, -57, -42, 33, 39, -81, -53, -17, -32, 39, 38, -42, -99, -106, 25, 9, 36, 52, 87, 24, 31, 98, 77, 82, -78, -33, 61, 70, 64, -70, 71, 16, 84, -2, -109, 105, -70, -56, 5, -37, -118, 107, 79, -119, -95, -119, -1, -97, 88, 113, -61, 10, -27, -114, -75, -70, -5, -39, 8, -88, -64, 4, -17, 6, -64, 37, -107, -117, -48, -39, -1, -107, 76, -35, 18, -119, 43, -7, -110, 32, -25, 114, 58, 87, -123, -51, 1, 7, 24, 105, -110, -3, -46, -37, 51, 97, 111, -21, 
  1, -120, -96, 54, 1, 29, -116, -28, -76, 14, -40, -29, -90, -25, 67, -102, -83, -28, 104, -117, 85, -16, -60, 26, -54, 105, 14, -62, -18, -74, -79, 94, -106, 50, -82, 42, 31, -16, -59, -76, 102, -21, -3, -9, -28, 15, 86, -30, 126, -95, 116, -2, 24, -84, 80, 65, 77, 34, 39, 93, 45, -117, -107, 44, 58, -90, -57, 12, 66, 113, 91, 55, -44, 120, -41, 73, -84, -29, -90, -30, 31, -56, -88, 41, 102, 123, -9, 67, -86, 56, -37, 33, -117, -37, 123, 44, 83, -12, 60, -20, -89, 29, 79, -25, 71, 99, -76, 108, -16, -84, -4, 47, 27, -46, 113, 21, 87, -79, -85, -99, 126, 100, 73, 107, -100, -50, -32, -98, -92, -15, 62, -12, 7, 52, 64, -12, -45, -44, 18, 77, -12, -40, 15, -21, 107, -104, -116, -35, -61, 27, 87, -117, -78, -28, -84, -19, 30, -121, -117, 36, 7, 26, 99, -68, 58, 87, -104, -83, 30, 50, -41, -18, 95, 74, -100, 21, -119, -41, -2, -4, 13, 10, 126, -26, -118, 6, -69, 89, 83, -59, -3, -93, 38, -89, 76, -51, -55, 100, -114, -22, 106, -89, 123, 51, 62, -55, 119, -19, 63, 86, -25, -93, 41, 108, 98, -112, 15, 11, 10, 80, -29, -93, 104, 20, -19, -21, -113, 100, -7, 94, -116, -92, 1, 37, 12, -90, -3, 34, 58, 8, -3, 121, 63, -58, -82, -7, -2, -107, 88, -14, 36, 56, -122, -103, -31, -63, 74, -13, 33, -8, -6, 10, 19, 2, -32, -35, 67, 88, -110, 72, 107, -121, -89, -27, 76, -94, 98, 9, 111, -2, 20, 127, 48, 125, -74, 28, -42, -93, 27, -110, 85, 127, 80, 9, 111, 101, 85, 49, 86, 116, -49, -75, 27, 22, -1, -90, -77, 95, 50, -105, 80, -113, 67, 94, -40, -71, -62, 41, 100, 56, -110, 31, 4, 82, 11, -23, -37, -99, 104, -42, -3, 41, -41, -28, -120, 3, -51, 91, 81, -70, -49, 47, 5, 120, -27, 6, 90, -123, -88, -79, -92, 31, -6, 112, -97, 33, 113, -66, 13, 29, 67, -45, -51, 9, -122, 1, 113, 52, 10, -7, 73, 67, -120, -113, 49, 104, 75, 77, -86, -20, -51, 88, -41, -61, 123, -67, -47, 43, 86, -120, -12, 45, 110, 42, 62, 62, -78, 36, 121, 118, 59, 43, -79, 121, -12, -114, -44, -51, 19, -98, 111, 19, 32, -48, 4, 11, 16, -101, 105, -60, -43, 35, 19, -63, 17, 44, -81, 80, 27, -38, 28, 118, 51, 24, -13, -20, -30, -15, -60, 81, 79, 64, 75, 33, -64, 123, 58, 23, 115, -65, 63, -89, 32, 95, -88, -43, -35, 68, 84, -107, 95, -103, 54, -120, 7, -45, -11, 104, -71, -71, 57, -21, -85, 52, -13, -19, 94, -15, 70, 120, 0, 82, -115, 19, -87, -97, 65, -29, -50, -111, 6, -100, 53, 47, -41, -69, -25, -80, -26, 23, 80, -108, -70, 31, -14, -88, 65, -122, 107, -13, 43, 123, -52, -1, 6, 72, 8, -76, 30, 79, -99, 97, -69, 16, -20, 88, -65, -63, 57, -37, 115, -3, 95, -53, 80, -15, 112, 125, -65, 74, -53, 124, 104, -5, -21, -72, -63, -52, -74, 60, 4, 53, 111, -116, -47, -89, -26, -65, 17, -50, -73, 27, -33, -111, -37, 28, -119, -105, -16, 109, -58, -66, -108, 29, 90, 44, -48, -81, -29, -10, 50, -85, -123, 124, 114, -107, -78, 5, -67, 99, -66, -50, 70, 25, 11, 89, -79, 7, 52, -9, -28, -47, -120, 120, 106, -21, 55, -59, -74, -48, -61, 88, 14, 101, -91, 59, 64, 87, 9, -28, 41, 55, 63, -79, -84, 73, -112, -87, -78, -96, 66, 112, 69, -92, 19, -45, 99, 38, 29, 103, -90, 59, -79, -76, 74, -120, 9, -75, -24, 66, -36, 30, -11, -82, 70, 7, -122, 17, -96, 74, 54, 36, 56, 126, 23, 100, 3, -58, 122, -36, 17, 91, 5, 94, -68, -46, 10, -104, 12, 28, -103, -61, 7, -25, -42, 51, -30, 33, -50, -82, 125, 113, -7, 118, 111, 103, -97, -99, 125, 18, 105, -24, 80, 75, 123, -94, 61, -33, -58, -34, 7, -86, -16, 46, -27, -123, 20, 107, -90, 46, -9, -97, -44, -46, -123, -123, 80, 66, 58, 103, -1, 75, -59, -39, -10, 10, 24, -83, -88, -34, -15, -114, 5, -20, 110, -71, -82, -121, -11, -80, 27, -24, 126, 93, -84, 74, 121, -123, 95, -50, 35, -49, -82, 14, -15, 122, 83, 10, 55, -52, 10, 5, -95, 110, -7, -53, 53, -19, 116, -119, 0, 40, 37, 119, -16, 78, -109, 71, 74, 68, -57, 89, -86, -35, 12, -85, 8, 28, -28, -121, -69, 60, -119, -46, 82, -104, -78, 6, 50, -56, -46, -82, 61, -98, -112, -34, 97, 62, 45, -72, 83, 58, -9, 36, 70, 27, 19, -62, 52, -57, 7, -11, 100, 124, -35, -14, 85, 
  -119, -32, -96, 53, 35, 38, -84, 21, 21, 108, 3, -106, 21, 57, 12, -59, -31, -25, 119, 74, -122, -76, 126, -8, -15, 115, 10, -39, 96, 25, 2, 93, 10, -99, -26, 94, 31, -23, -90, 8, 9, -21, -27, 70, -91, -76, 94, -91, 72, 78, 106, -69, -47, 113, -111, -70, 68, 4, 81, -83, -113, -65, -24, 81, -67, 38, -36, -120, -117, 47, 60, -42, 1, -73, 17, -87, -103, 51, -59, 73, 74, -68, -67, 17, 66, 69, 97, -62, 107, -36, -3, -80, -46, 80, 75, -101, -92, -49, 71, -8, -23, -73, -93, 54, 24, 35, -6, -80, 51, -97, 54, -74, -40, -10, 29, 84, -10, 27, 24, 8, 51, -117, 125, -66, -26, -85, -77, 107, -114, -62, -63, -50, 98, 42, -88, -43, 100, 20, -102, 79, 36, 110, 17, -43, -60, 98, 69, -14, 113, 24, 78, 51, 34, -38, 117, -26, -8, -91, -60, -112, -2, 78, -95, 68, 108, -24, 26, 9, 105, 61, -90, 107, -104, 127, 110, 62, -72, 61, 106, -18, 110, -6, -63, 97, -74, 78, 108, -39, 2, -51, 2, -98, 58, 45, -41, -123, 70, 58, -43, -66, -76, -66, 114, -21, 20, 47, 77, 126, -40, 54, -100, -4, 90, -100, -110, -117, -101, -23, 74, -54, -8, -73, -113, 17, -117, 6, -30, -37, 63, 80, 115, 49, -52, -38, 65, 20, 104, -118, -87, -60, -90, -34, -8, 24, 81, -80, 16, 51, -112, 113, -53, -7, -93, 1, 88, -19, -19, 73, -71, -96, 119, 111, 20, 10, -90, 104, -122, -92, -106, -75, 122, 0, -39, 103, 16, 19, 33, 100, 36, -21, 4, 71, 91, 39, 126, -101, 11, -72, -95, 75, -58, 73, 45, 118, 78, 126, 43, -108, -91, 108, 67, -49, -104, 34, -3, -19, -21, 127, 27, 39, 60, -104, 23, 103, 108, -29, -15, -10, -7, -90, -121, -85, -44, 36, -65, -59, 33, -52, -82, 31, -40, 96, -80, 21, -90, -1, -11, -52, -27, -87, -79, 101, -49, 34, 54, -59, 46, -43, 87, 121, -85, -31, -73, 102, 111, 101, 27, 20, -96, -37, 6, 91, 1, 46, -55, 24, 37, 72, -42, -119, 11, 85, 40, 22, 19, -109, 30, 66, -79, 100, -9, -65, -35, -99, 83, -28, -59, 64, 34, -34, -94, 118, -67, -117, 36, 118, 76, 31, -79, -121, -75, 46, 51, -25, 3, 65, -37, 104, 10, 49, -21, 35, 55, 80, 11, 87, -7, 126, -110, -70, -112, 78, 67, -71, -56, -67, -36, -78, 32, 10, -35, -43, 109, -78, -52, 58, -92, 32, 3, 83, 106, -1, 119, -67, -122, 1, -23, 115, 91, 86, -6, -101, 120, 47, -122, 103, -120, 126, -65, -25, 3, 77, 107, -18, -14, -43, 127, -37, -89, 30, 76, -41, 108, 85, 12, 63, -111, -38, -52, 72, -59, 111, -111, -66, 111, -116, 63, -57, 47, 95, -57, 123, 5, -101, -38, -38, 7, 3, 86, 84, 8, 99, 55, 49, -98, 60, -50, -46, 27, 86, -83, -34, -98, -13, -113, 25, 65, -94, -58, -55, -47, 41, 60, -30, -84, 100, 119, -100, 3, 19, -10, 123, -58, -77, -87, -91, 69, -100, 91, -48, -104, -65, -72, 118, 124, 108, 48, -100, -21, 1, 125, 31, 22, 36, 101, -68, 64, -1, 70, -76, 4, 11, 123, 43, -66, 65, -98, 45, 61, 102, -68, -105, 32, -74, 43, -17, 22, -94, -22, -49, -20, -72, -22, 63, -73, 6, 77, -81, -10, -116, 75, 123, -23, 46, -31, -15, -25, -27, 10, -104, 37, 61, -122, 18, 107, -29, -39, 111, -7, 56, 111, 85, -6, 125, 12, -84, -57, -99, -75, -7, -47, -122, 90, 8, -17, 108, 124, 52, 73, -51, -81, 31, 32, -43, -26, 126, -119, -115, -91, -64, 97, 38, -56, -36, -16, 114, 64, 1, 43, 45, -38, 29, -48, 116, 40, -86, 99, 85, 103, 9, -30, 92, -120, -92, -48, 67, -62, 35, 0, -108, -38, 65, 28, 126, 121, 80, -48, 55, 10, 77, 1, 114, 19, -99, -116, 39, -85, -72, 48, -115, -75, 74, 75, 32, -99, -86, 54, -30, -43, -50, -11, 27, 68, 21, -33, 112, -62, 53, 109, 55, 109, 123, -33, -112, -83, -8, -93, 76, 86, -111, -3, 86, -19, 98, 54, -58, -11, -18, -23, -95, 122, 42, 80, -115, -66, 126, 51, 71, 104, -91, 65, -115, 114, 24, -10, 99, -62, 30, -5, -63, 8, 16, -7, 17, 120, -64, 29, 53, -77, -14, 21, 12, -83, 6, 122, -45, -120, -107, -93, -42, 49, 124, -10, -114, 122, 41, 64, 108, 64, -55, 92, 114, 3, -18, -32, -92, 51, -122, 10, -39, -82, -5, 123, 63, 52, 90, 113, 39, -30, 72, -65, -27, -30, -33, 65, -104, -40, -37, 112, 46, -21, -20, 112, -100, 34, 114, 2, 126, -55, 41, 27, -61, -52, -51, 83, 53, -65, -9, -96, -38, -34, -88, -66, 121, 95, 71, 100, 
  1, 70, -74, 78, 40, 111, -94, -48, 24, 38, 41, 4, -8, -25, -105, -5, -60, -54, 29, 23, 20, -50, -47, 28, -13, -56, 108, 51, 113, -1, 8, -65, -61, 69, -63, -46, 71, 64, -91, -63, 52, -101, -81, -33, -115, -6, 103, 94, 66, 40, 53, -112, 24, -67, 80, -26, 74, -95, 52, 35, -88, 26, -40, -71, 119, -8, 22, -80, -25, -119, -49, -8, -15, 26, 27, 47, 40, 31, -10, 115, -28, 62, 71, -74, 77, -3, -20, -56, -90, 106, -83, 51, 45, -48, 115, 1, -75, 50, 122, 14, -66, -20, -74, 120, -43, 26, -94, -39, -33, 69, 52, 85, -62, 112, -56, 24, 71, 116, -105, 96, -70, -10, -102, -20, 104, 106, 120, -108, -8, 42, -67, 34, 12, 50, 67, -87, -86, -124, 119, 33, 28, 107, 22, 116, -36, 30, -42, 90, 107, -74, -66, 20, 17, -27, 77, -67, -25, -124, -28, -12, -30, 95, -35, -101, -44, 31, 88, 70, 44, -96, 119, 118, 35, 51, 45, 123, 100, -109, 16, -108, 8, 73, 120, -32, -102, -108, 23, 116, 84, 51, -52, -1, -41, -14, -57, 72, 10, 70, -49, 79, -37, 79, 58, -10, -115, -89, 115, 19, 76, -11, 38, 103, -115, -11, 6, -64, 65, 22, -23, 98, 27, 55, 77, -110, -76, -62, -11, -59, 30, -74, -25, -115, 117, -59, 19, 38, -115, 112, 6, 3, 8, -24, -120, 93, -80, -5, -94, 5, -42, -17, 69, 31, 52, 6, 89, 16, -51, -64, 14, -99, -44, 99, 76, -98, 25, -57, -110, 41, 43, -113, -53, -11, -92, 92, -76, 61, -90, 20, 107, -97, -121, -9, 106, 89, -82, -86, 69, -37, -77, -42, -56, -67, 91, -82, -85, 80, 1, -18, -30, -17, -65, 91, 5, -21, 4, -47, -109, -23, -26, -5, -100, 11, -44, -50, -10, 104, -10, -23, 36, -1, -41, 82, 118, -96, 72, 80, 18, -10, -110, 55, -23, -104, 42, -119, 70, 59, 83, -16, 55, 41, 76, 47, -84, 61, -73, 44, -37, -121, 80, 57, 73, -123, 52, -107, -15, -30, 122, -18, 120, -37, 107, 31, -122, 66, 101, 54, -15, 4, 90, 40, 95, 72, 100, -79, 25, -85, 125, -16, -20, -50, -48, 107, -2, 28, -36, -34, 39, -115, -122, -27, 39, -113, -110, -72, 63, -115, -33, 9, -36, -98, -10, 45, 74, -39, -8, 56, 80, -43, -111, 26, 112, -6, 114, 69, 5, -66, 17, -19, -99, -68, 64, -108, 97, 4, 39, 50, 5, -33, -14, 115, 80, -34, 113, 93, 121, 65, 40, -111, -1, -93, -36, -5, 114, 57, 26, 48, -73, 53, 78, 69, -43, 5, 77, -53, 28, -92, -86, -19, 6, -41, -90, -100, -24, 81, 63, 15, 50, 47, -90, 85, -66, -12, -99, 66, 63, -25, 89, 0, -43, -52, 7, -102, -70, -35, 93, 63, -100, -25, -15, -5, -51, -59, -76, -48, 103, -12, -125, -64, -28, 116, -94, 4, -8, -107, 125, 75, 111, 44, 31, -41, 80, 5, -9, -113, 78, -96, -19, 113, -117, -27, 125, 112, 123, -5, -78, 55, 65, -75, 117, -117, 63, -45, 22, -69, -9, 69, -109, 94, -48, 2, 45, 92, -3, 115, -11, 67, -33, 67, -47, -28, -37, -51, -5, 31, -33, -16, -77, -30, -97, -28, 112, 8, 61, -38, 50, 44, -82, 34, 72, 13, -58, 117, 111, 4, -123, 16, 26, -71, -74, 125, -99, 60, 11, -21, 120, -117, -8, 36, 42, -96, -28, -42, -22, 17, -49, 29, 56, 88, 47, 61, 3, 88, 11, -41, 16, 56, -31, 64, 25, -10, -2, 30, 38, 94, -93, 85, 125, 84, 20, 68, -102, 87, -49, 78, -69, -70, 83, -60, -32, -64, 103, 52, 50, 84, 23, -31, -113, 55, -47, -99, -21, 108, 21, 25, 30, -90, 115, -81, -92, 26, 3, 86, 26, -58, -26, -4, 45, 63, 99, 68, 15, -16, -107, 112, -84, 108, 17, 89, 72, 99, 6, -50, -42, -61, -13, 34, -50, 69, 12, -113, 8, 54, -65, -103, 62, 4, -111, 29, -54, 34, 34, 38, -14, -74, 109, 119, 66, 90, 32, 115, 110, 83, -32, 31, -118, 34, -90, -23, 122, 93, 113, 89, 29, -49, -8, 5, -50, 27, -63, -46, -83, -72, -59, -120, 40, 115, -23, 30, 96, 14, -105, 106, -4, 116, -52, 61, 112, 125, 78, -25, 119, 97, -124, 44, 40, -118, -46, -80, -25, 96, 15, -77, 68, 33, -16, 67, 1, -74, -58, -40, 96, 83, 23, 101, 58, 102, -94, -18, -19, -115, 35, -63, 88, -8, -55, -66, 30, 55, -50, -94, 18, -12, 42, -67, 28, -77, 105, -11, -2, -23, -118, 61, 73, 76, 76, -68, -71, -53, 124, -42, -17, 67, 31, 112, 37, -102, -76, -22, 85, 33, 12, -2, 17, 93, -76, 0, 22, 25, 43, -19, -35, -41, -70, 35, -53, -71, 23, 91, -5, 92, 85, -115, 28, -28, 122, 44, 77, 
  61, -72, -25, -22, -4, 45, 29, 40, -4, -105, -62, -78, 112, -60, 90, 21, -65, 43, 82, 103, -62, -117, -25, -41, -85, 55, 20, -51, 66, 39, 55, 116, 4, 110, -37, 76, -14, 32, 119, -68, -5, 30, 104, 66, -37, 77, -116, 74, -21, -13, -21, 3, -42, -55, -21, 75, 31, -49, 77, 11, -27, -2, 100, 4, 25, -4, 76, 48, 21, -92, -121, -54, -63, -116, -63, -115, 29, 122, 43, 53, -112, 28, 33, 2, 121, 115, -41, 33, -90, -36, 36, 32, -111, 24, -91, 4, 53, 113, -89, 48, -3, -11, 19, 71, 83, -71, -7, -89, -46, 5, 7, 94, 76, -21, 47, -73, 11, -55, 71, -113, -84, -28, 25, 84, 20, 61, 61, -70, -61, 111, -47, 62, -64, -70, 96, -114, -43, 31, -13, 28, -21, -6, -82, -77, 85, 110, -35, -80, -33, -62, -13, 86, -86, 88, -99, -100, 18, -99, -47, -105, 22, 51, 13, -120, -13, 106, 11, 42, -117, -101, 26, 95, 115, 72, 103, 103, 98, -32, -125, 113, 4, 71, -39, 91, 50, 95, -46, -20, 39, -14, -49, -98, -77, 98, 117, -12, 91, 113, 114, -125, -101, -116, 39, -77, 118, -2, -70, -88, -65, 34, -77, -37, -74, -96, 99, -103, -21, -74, 87, 118, 74, 58, 115, 85, -84, 75, -46, -13, -44, 88, 5, -35, 1, -15, -61, 14, 41, -103, 51, -80, 117, 90, 62, -77, 85, -20, -17, -47, 106, -27, -109, 111, 33, 70, -25, 78, 74, 6, -110, -51, -81, 114, -7, -100, -45, -76, -70, 101, 42, -77, -40, 2, -87, 34, 18, -98, -72, 21, -114, 47, 74, -79, -69, -70, -6, 29, -34, 3, 69, -15, -119, -14, -118, -57, 123, -97, 5, -63, 103, 124, -125, 93, -126, 64, 61, 1, 72, 92, -26, -90, 103, -93, -34, -92, -71, -114, 89, -17, -117, -97, 94, -102, -95, -9, 60, -27, 56, 63, -28, -89, -80, -30, 1, 46, 37, -90, -2, 35, -90, 25, 112, 22, 31, -18, 6, -27, 59, -1, -69, -79, 111, -52, 85, 62, 42, 34, -7, -71, 107, 9, -54, -61, -29, -79, 17, 87, -4, -101, 52, 16, 9, 115, -85, 121, -123, 72, -12, -75, -61, -111, 43, 115, -10, 117, -45, -121, 10, 115, 49, -18, -112, 64, -115, 19, 88, -103, -121, 0, -101, 64, -26, 22, 102, 105, 51, -3, -14, -94, -114, -121, 32, -38, -66, 29, -80, -71, 61, 72, 103, -4, 39, 54, 55, 82, -39, -14, 35, 66, -52, 38, 102, -92, 40, 48, -86, -76, 92, -22, 35, -51, -35, 1, 46, 11, -124, -72, 13, -54, 11, -100, 117, -24, 107, -25, -79, 12, 108, -102, 36, -126, -102, -83, 121, 27, -80, -18, -82, -93, -4, 97, 95, -32, -19, 12, 88, 113, -38, 95, 15, 102, -33, 3, 7, -42, -46, -96, 66, 20, 103, 43, 78, -55, 81, 49, -32, -31, 99, -104, -2, 36, -98, 11, -106, 42, -25, -56, 45, 40, 10, 123, 96, 95, -78, -110, -12, 61, -98, 122, -12, 67, -33, -39, -113, -27, -49, 68, 19, -98, 96, 9, 92, -73, -122, 22, -12, 70, -126, 107, 10, 57, 102, 69, 112, 115, 46, -97, 24, 25, 35, 101, -54, 68, -51, 47, -87, 124, 52, 27, 84, 36, -107, 49, 20, -105, 58, 60, -111, 46, -123, -50, -56, 23, -5, 86, 80, -71, -31, -105, 94, -116, 97, 2, 76, 4, -84, -33, -44, -7, 7, 28, -58, -95, -45, 41, -17, 19, -102, 35, 72, -74, -34, -90, -64, 56, 49, -24, 34, -38, -37, 11, 15, -104, -55, 113, 37, 10, 115, 117, -13, 24, -28, 102, 22, 39, 31, -123, 60, -96, 122, 89, 53, 81, -6, 6, -56, -24, 29, 10, 72, 0, 22, -38, -7, 70, 119, -115, 84, 40, 90, -85, -73, 104, 84, 7, -80, 82, -58, -89, 20, -97, -116, 104, 2, 29, 118, 119, 111, 34, -28, 2, -11, 96, 53, -64, -13, 34, -7, -113, 43, 46, -125, -87, -17, -81, 113, 74, -2, -36, -86, 120, -122, 93, -7, -119, 103, -52, -55, -32, 124, 28, -44, 60, 122, -66, 22, -66, -81, -7, -56, -66, -24, 106, 3, 85, -5, 104, -5, -81, -71, 84, -40, 75, -62, 81, 69, 25, -27, 40, -66, 26, 69, 52, -82, 103, -4, 8, 121, -8, 70, 74, 104, 46, -107, -57, -118, 32, 30, 32, 97, 19, 96, 122, -103, 26, -90, -19, 17, 31, -38, -65, 71, -93, 118, -43, -78, -122, -1, 55, 69, -32, -106, 47, 99, -19, -113, -101, 42, 49, -12, -52, -57, 65, 40, 85, 117, -3, 78, -26, 36, 89, -30, 80, 106, 50, -41, 91, 122, -10, -94, 62, -51, 14, 93, -105, 70, 0, 37, -83, -94, -12, 14, -5, -18, -17, 87, 106, 81, -63, 87, -61, 98, -14, -115, 21, -89, -15, -85, 50, 34, 45, 63, -31, 100, -15, 2, 93, -24, 
  -92, 112, -15, -45, -48, 37, 37, -28, -57, 67, -102, -93, -123, -88, 108, 30, -25, 59, 34, -43, 24, -15, 114, -93, 32, 3, -60, 21, 31, -34, 55, -36, -77, -10, -44, -52, 28, 86, 12, -48, 98, 4, -107, -66, -18, -4, 91, 106, 66, 55, 45, 15, 84, -44, -116, 60, -69, 56, 9, 19, 48, -34, 19, -40, -51, -105, 40, -34, -56, -16, -111, 65, -22, 54, -48, -68, 30, 36, 98, 27, 59, 18, -42, 3, 61, -65, -52, 96, 110, 10, -46, -17, 4, 96, -111, 21, 79, -86, 115, 104, 41, -13, 74, 35, -13, -95, 56, -111, -94, -21, 113, 55, 67, 65, -72, 73, -103, -119, 27, -30, 80, -25, 8, -7, -83, 24, 114, -41, -32, -48, -52, -79, -28, -23, 77, 89, -76, -112, 33, 13, 72, -71, -98, -106, 105, 79, -27, 38, 117, 31, -21, -3, -1, -29, 35, 42, -32, 49, -108, 121, -117, 87, -39, -2, 121, -60, -120, -81, -98, 59, -81, 1, -84, -6, 118, 51, -115, 5, -82, 112, 102, -98, 118, -15, -94, 99, -17, -95, -52, -7, -71, 76, -97, -89, 71, 104, -21, 81, 76, -24, -33, 105, 77, -37, -84, 106, -81, -38, -75, 124, -89, 81, -78, 83, 21, 60, -99, 72, -19, -72, -108, 95, 24, -70, 125, -83, -114, -25, 72, -95, -63, 46, -53, 64, -58, -3, -43, 14, -74, 43, -112, 57, -64, -29, 1, 74, 27, -102, 17, -60, -23, -50, 57, -100, 84, 31, 61, 58, -83, -114, 64, 60, -72, -12, 44, 112, -20, 16, 87, 27, -53, 93, 99, -16, -62, -73, 49, -18, 116, 42, 89, 72, -87, 4, -54, 27, 103, 22, 35, 97, 49, -92, 108, 125, -7, -5, 49, 29, -13, 66, -57, 120, -16, 20, 30, 99, -21, 6, 92, 84, -37, 47, -50, 41, 27, 41, 83, 37, 26, -72, -96, -3, -35, -34, -114, 117, -118, 87, 11, 1, -57, 99, -55, -60, -124, 78, -71, 56, 124, 118, -10, -79, 89, -5, -18, -29, -72, -84, 74, 89, -22, -62, -117, -36, -68, -68, -22, -68, 115, 74, -17, 64, 104, -5, -57, 20, -107, -50, 45, 122, -77, 15, 84, -35, -79, 47, 30, -29, 18, -28, -105, -95, -106, 49, -32, 115, 5, 17, -2, 37, 124, -109, 115, 74, 97, -104, 114, -124, -31, -97, -8, -33, -20, 90, -99, 39, -46, -103, -71, -34, -60, 19, -10, -87, 99, -85, 14, 58, -13, 63, 100, -60, 20, -77, -107, -121, -15, 91, -49, 0, -71, 17, -45, 8, -88, 114, -91, 66, 94, -89, 8, 4, 69, -97, -109, 66, 100, -108, -62, -93, 62, -13, 93, 75, 54, -12, 11, -74, -90, -16, 123, 101, -17, 119, 22, -122, -19, 99, 117, 115, -101, -83, 18, 83, -65, 124, -86, -48, 93, -46, 79, 107, 84, -7, -8, 90, -9, -68, 12, -14, 91, -60, 52, -48, 0, 9, -75, -41, 84, -112, 32, -21, -1, -78, -39, 75, -6, 70, -42, -111, -105, 5, -50, 117, -113, -46, -76, -5, -85, 91, 83, -77, 92, 73, 76, -61, 121, -104, -110, -41, 11, 32, -93, 37, 32, -42, -99, 61, -10, 35, 123, -24, -101, 84, 113, -55, 91, -112, -1, 71, 40, 49, -60, -87, 47, -42, 90, 66, 37, 107, -95, -1, 17, 114, -31, 122, -58, 14, -24, -51, -60, -4, 14, -125, -31, -73, -12, 86, -27, -12, 49, 76, 34, 103, -4, 58, 63, -21, 88, -34, 116, 55, 0, 76, 102, -89, 97, -34, 0, -106, -111, 91, -68, -22, -19, 59, -23, 120, -118, -37, 104, 40, 60, 91, 56, -107, -10, 70, 85, 31, 4, -94, -46, -31, 29, 34, 121, -35, 8, 87, 111, -18, -124, -21, 72, 65, -54, -39, 86, 75, 66, 115, -123, -76, -23, 118, 109, 111, -34, -67, -11, 78, 29, 32, 54, -114, 97, 112, 48, 72, -50, 57, 122, 104, -51, -18, -44, 117, -86, -6, 105, -33, -112, -66, -112, -47, 36, -119, -89, 9, 11, 77, -68, -84, -92, 4, -64, -34, -84, -4, 33, -66, 110, 117, -65, -96, -45, 37, 14, 87, -38, -90, 85, 65, 75, 20, -17, -70, 18, -6, -63, 32, -1, -64, -99, -43, 104, -103, -124, 118, 37, 26, 89, -107, 95, 110, 34, 84, 64, -40, 28, 36, -38, 109, 86, 58, -98, -114, -16, 108, -119, 10, 105, 32, -85, 11, -100, 58, 109, -17, -67, 64, -9, 48, 89, -17, 115, 20, 31, -106, 103, -46, -116, -117, -75, 20, -110, 32, 13, -44, 75, -49, 65, -105, 5, -47, -52, -62, 65, 109, 82, 104, 41, -70, 76, 79, -33, 36, -76, 104, -34, 121, 55, 8, 120, 124, 96, -21, 69, -102, 80, -55, -34, 100, 46, -39, -17, 106, -87, -101, -118, -89, 40, 64, 73, -108, 50, -46, -67, -105, -26, 78, 72, 44, 122, -115, -86, 98, -107, -61, 49, -53, 3, -76, 84, -101, -83, 
  -41, 120, -83, -29, -102, 114, 18, -115, 99, -96, 78, -67, -89, -54, -69, -13, -2, -98, 7, -35, -38, -98, -119, -25, -20, -107, 86, 38, 45, 86, -109, 104, -109, -64, 13, 39, -122, 27, 53, 42, 14, -111, 78, -82, -82, 94, 54, 97, 26, 3, 112, 39, -56, 113, 49, 14, 0, 109, -40, -71, -19, 62, 36, 92, -110, 39, 50, -85, 78, -73, -117, 104, -41, 119, 44, 59, 18, 7, 100, 96, 87, 107, -13, -9, -72, 40, 84, -100, -95, 113, -112, -103, -120, -112, -90, -76, -124, -93, -81, 68, -113, -2, -112, 36, -6, 30, -13, 83, 69, -22, 105, 16, 83, -52, -14, 67, 3, 99, -63, 35, 25, 111, -116, -69, -95, 109, -55, -50, -49, 86, -13, -112, -108, 2, 119, -75, 81, -27, 97, 46, -84, -2, -78, -42, 34, 37, -49, -108, 48, 82, -122, -40, 13, 54, -48, 4, 23, -26, -89, 31, 46, 87, -3, -59, -107, -121, 51, 74, -28, -73, 41, -62, 60, -79, 76, -36, 109, 12, -76, 6, -76, 2, 43, 13, 19, -74, -38, -9, 65, -122, -15, 3, 43, 43, 112, 117, 47, -56, 98, -72, -21, 113, 103, -42, -83, -114, 97, 13, -15, 40, 31, -115, -104, 47, -110, -12, 123, -13, 120, 17, 125, 76, 102, -36, 83, 55, -116, -124, 87, -36, -2, 14, 105, 61, -114, 37, -119, -33, -82, -98, -124, 99, 71, -17, 55, -103, 56, -46, 97, -19, 72, -9, 26, -82, -116, 4, 20, 70, 36, 81, 51, 111, 67, -109, 98, -72, 1, -96, -110, -27, -96, -51, 117, 117, 37, 101, 47, 30, 23, 90, 104, 22, 30, 97, 41, 90, -121, 34, -50, 74, 51, -84, 7, 43, -25, 31, 59, -80, 72, 30, 98, 102, 61, 21, -78, -36, -88, 76, 106, 85, -44, 88, -6, -51, -57, 48, -116, 38, -7, 123, -29, -6, -63, -38, 77, 39, -22, 87, -64, -45, 81, 109, -115, -28, -120, 29, 7, -52, -28, 124, -82, -114, -13, 57, 24, -109, 98, -108, -11, -25, -73, 113, 21, 32, -50, -82, -70, -10, 16, 71, -109, -114, -8, 24, -13, -42, -49, -23, -23, 88, 0, -30, 81, -78, 97, 18, 7, -67, 91, 28, -47, 44, -9, -90, -86, -88, -89, -31, -24, 59, 51, -48, 123, -53, 122, 56, 55, 115, -75, 109, 100, -62, 3, 43, 88, 86, 60, 58, -101, -10, -17, -118, -9, 102, -1, 51, 121, -65, -32, -71, 44, 74, 99, -108, 29, 119, 13, 119, 114, 78, 58, -88, -45, -120, 62, 89, 14, 114, 29, -72, -113, 118, 51, 14, -31, 33, -46, 83, -33, 62, -16, -52, -62, -122, 5, 63, 15, 93, -116, -17, 2, -99, -94, -97, -108, -108, 123, -96, -92, 64, -82, -66, 93, -80, 120, 0, -4, 95, -120, 124, -70, 35, -84, 17, 36, 62, 54, 106, -120, -90, 120, -47, 1, -124, 48, -97, 100, 46, 48, 121, 45, 8, -79, 3, -72, -23, 89, -103, -118, 64, -93, -76, -13, 86, 37, -88, 64, 21, -113, -45, -106, -124, 10, 72, 90, 19, 73, 116, -3, -70, -18, -23, 125, -20, -71, -66, -96, 11, 88, 74, -119, 93, -29, 77, -37, -106, -40, 15, 23, -25, 26, -53, -38, 121, 78, 56, 50, -85, -121, -11, 10, 16, -43, 7, 66, -105, -37, 47, -14, 18, 3, 62, 104, -36, 30, -29, -3, 80, -99, -53, 51, 71, -52, 42, -4, 35, 9, -75, -107, -43, 32, -16, -106, 4, -105, -8, -113, -113, 79, -14, -94, -6, -17, -80, -54, -111, 115, 108, -53, -124, -7, 71, 82, -70, -123, -113, 2, -98, -35, -2, -11, 55, 24, -21, -2, -15, -70, 63, 73, -23, 49, 44, 27, 43, -82, 87, 95, -47, 117, 56, 0, -107, 55, -50, 55, -86, -71, 96, 118, 104, 26, -100, 25, 123, -86, -73, 34, -36, -76, 99, 55, 19, -81, -114, -113, -62, -122, 26, 120, -30, 88, 21, 9, -107, 35, 101, 3, 66, 96, 112, -21, 110, -25, -49, 44, 54, 116, 5, -70, 40, -69, 120, 72, 54, -94, -52, 23, 111, 78, 14, 1, 12, -69, 47, 110, -16, -107, 71, -34, -40, 55, 65, -83, -51, -104, 120, 15, 29, 69, 63, 119, 108, 70, -51, 114, -122, -93, 52, 119, 63, -113, 28, 68, 78, -76, -80, 67, 115, -106, -114, -46, 68, -69, 7, -72, -25, -90, -106, -66, -37, 67, 52, 71, 2, -82, -33, 117, -104, -94, -8, -38, -120, 102, 32, -72, 2, -29, -73, 70, -2, 41, -116, 46, -46, -8, 19, 45, 23, 24, 61, -83, 20, -92, -44, -100, -85, 13, -12, -88, -6, 44, 57, 59, -51, 73, -57, -90, 51, 60, -85, -122, -47, -67, -32, 80, -62, -27, -69, 122, 5, 37, 55, -28, 53, 91, 5, -17, -102, -53, 80, 25, -101, -34, 9, 94, 105, 32, 125, 22, 29, 116, 67, 79, -62, 98, 111, -38, 
  39, 51, 47, -118, 78, 58, -39, -23, 53, -96, -121, 118, 10, -47, -124, -75, 23, -20, 90, 0, -14, -34, -22, -65, -52, 111, -105, 29, 99, -1, -42, 47, -53, 50, 87, 39, -19, 15, -104, 31, 63, -101, -86, 83, -34, 8, 98, 61, -85, 106, -123, -91, 27, -85, -35, 1, -103, 44, 74, 37, -20, 92, -65, 123, 107, 110, -122, 18, 6, -124, 48, -81, 56, 123, -86, 114, 54, 68, 104, -17, -56, -30, 86, -41, 63, -11, 56, 46, 50, -23, 99, -20, -116, -30, 9, 50, -25, -111, 114, -90, 99, 80, 53, -116, -80, 55, 24, -98, 0, 51, -8, -30, -93, -44, 107, -79, 70, -120, 73, 61, -42, 13, 94, -97, 83, -86, -73, -53, 78, 119, -50, -110, -37, 47, 40, -80, 80, 14, 51, -62, 45, -70, -10, -69, 58, 44, 72, 104, -52, -60, 99, 123, 15, -12, -55, 96, -85, 61, -13, -76, -28, -39, 21, -36, 0, 77, -41, 32, -78, -26, -68, -38, -93, 57, -13, -82, -93, 107, 29, 92, 95, 66, 57, 99, 92, 17, -22, -92, 107, 53, -56, -70, -23, -53, 53, -55, -22, -88, 118, 124, 78, 18, 38, 43, -17, -26, -10, -2, -101, 117, -118, 45, 48, 99, 6, 64, 25, -24, 118, -35, -25, 111, -3, -60, -71, -42, -63, -119, -68, 96, 104, -46, 21, 126, 91, 22, 27, -79, -74, 61, 120, -63, 43, -95, 65, -56, 51, -29, 97, -96, -38, -73, -103, 34, 62, -88, 35, 5, 42, -4, -13, -45, -105, -107, 80, 117, -63, 14, 89, 3, 30, 24, -25, -102, 2, 90, -89, 107, -71, 79, -53, -41, 27, 2, 126, 6, 21, -10, -34, -39, 97, 116, 0, -1, 69, 30, 68, 36, -3, 109, -104, -111, 61, 105, 95, -65, 108, -88, 117, -101, -7, -64, -94, -67, 42, -47, -5, -54, 73, 112, -15, -100, -91, 48, -90, -98, 84, -91, -59, -25, 124, -49, 120, -67, -39, -4, -110, 124, -78, 41, 26, 95, 20, -33, -66, 113, 2, 20, -110, 80, 74, -14, -99, -74, 75, 95, 33, 26, -48, 95, -98, 108, -88, -27, -52, 25, -22, -124, -110, -21, -10, -90, -54, 6, -4, -118, 65, 66, 71, 13, 110, -10, 29, -19, 30, -92, 68, -22, -84, 6, 13, -55, 114, 64, -73, -39, -53, 78, 50, 60, 45, -15, 97, -19, 46, -108, -60, 114, 40, -65, 42, -90, 48, 16, 117, 113, 0, -82, -12, -96, -55, 23, 12, 112, 66, -47, -56, -32, -33, -11, -38, -14, 74, 114, 62, -49, -34, 104, -33, -48, 40, 48, 47, 65, -39, 12, 71, -13, 97, 118, 3, 122, 92, -18, -77, -89, 6, -93, -86, -34, 29, 73, -42, -6, -57, -44, -39, -113, 19, 105, -14, -5, 122, 6, 76, 20, 98, -94, -115, 49, -64, -3, 117, -71, 76, 105, -105, 8, -86, 125, 70, 11, 107, 50, -3, -99, 46, 99, -104, -70, -62, -2, 121, -123, -4, 77, 59, -30, 120, -109, -94, 125, 54, -52, -86, -71, -114, 55, 73, -68, 48, 56, -71, 85, -81, 117, 3, -98, 0, 98, -18, -68, 40, -26, 37, -121, -62, -104, 65, -65, 64, -56, 44, 23, -46, -8, -58, -104, 106, -50, -90, 79, 101, -95, -95, -4, -78, 126, 53, 102, -63, -102, 81, 98, -75, -124, -74, -119, -77, -114, 107, -52, -75, 70, 3, 12, 70, 10, 114, 13, -21, 25, -53, -39, -64, 100, 120, -81, 32, -59, -71, 82, 93, 23, -42, -123, -44, -12, 63, -98, 50, -1, -36, -65, -96, 44, 89, 29, -1, 57, 44, -12, 54, 114, -5, -76, 14, 42, 5, -15, 35, 63, 101, 4, -112, 98, -32, -43, 4, -67, -58, 68, -108, 39, -74, -42, 60, 113, -41, -47, -119, -7, 73, -69, -51, 58, 53, -32, -27, 109, 33, 96, 26, 110, -36, 108, 8, -92, 121, 20, -28, 13, -111, -43, -76, 73, 3, -87, 0, -106, 5, -35, -10, 117, -114, -19, -113, -18, 15, 37, -26, -19, -89, -91, 42, -94, 24, -2, 123, 90, -21, -46, -11, -70, 112, 87, -24, -15, 116, 36, -24, -46, 16, 1, 75, 47, 90, 60, 91, 78, -116, -108, 108, -94, -96, 93, -11, 49, 29, 30, 84, -112, -62, 76, 50, 111, -112, -2, 18, -20, -61, 5, -60, -95, -87, 36, -67, -68, 39, 10, 68, -122, 123, -50, 14, -122, -99, -35, -31, 89, -99, 50, 42, -119, 119, 76, -115, 61, -69, -69, -20, -56, 12, -44, -98, -23, -106, -66, 90, 41, 10, -19, 14, -111, -94, 82, 30, -114, -25, 40, 114, 111, 90, 7, -102, -91, 16, 20, 83, 61, -93, 82, 52, -81, 89, 88, -32, -72, 64, -52, 34, -115, 47, 62, 99, 60, 106, 47, -48, 55, 51, 119, -98, 114, -123, -69, -1, 43, 79, -64, -63, -40, -31, -115, -37, -9, -95, 110, 105, -107, 12, -52, -76, 113, -69, 81, -19, 
  -6, 24, 11, 61, -108, -6, -10, -47, 62, -22, 4, -40, -59, -5, 10, -52, 33, 110, 101, -100, 78, -78, -9, 104, 95, -92, -42, -78, 108, 71, -96, 37, -4, -91, -19, 105, -14, 91, -6, 90, -87, -53, 64, 71, 35, -97, 82, -13, -39, 87, -31, 122, -74, 120, 87, -118, -96, -49, 67, 36, -70, -44, 116, -81, 111, 103, 114, -69, 89, 53, 13, -52, -64, 23, 51, 1, 80, 82, 52, -79, -1, -98, -49, 36, -121, 60, -32, -44, 36, 11, -104, 33, 71, -89, -66, -22, 10, -87, -60, -83, 21, 17, 23, -70, -16, -35, -106, -71, -95, 119, -87, 6, 34, -104, -77, 21, 103, -22, -79, 123, 43, -30, -64, -106, 44, -5, 37, -21, 3, -104, 87, 83, 108, -123, -93, 123, -65, 76, 99, 36, 41, 123, -103, 67, -48, 38, -39, 21, 4, -33, 61, -72, 6, 41, -99, -38, -96, 123, 20, 115, 77, 14, -9, 37, -100, -115, 97, 6, -30, -94, -110, 115, 9, -85, 5, 122, 91, -61, 5, 22, -111, -94, -73, 119, 14, -59, 82, -1, -67, 62, -67, -64, -70, 48, 58, -68, -37, -39, -29, -7, -118, 10, -102, -83, 42, 61, -122, -19, 100, 78, -94, -14, -97, 77, 41, 37, -74, -88, -55, -68, -8, -122, 115, 112, 101, 55, 27, -44, -117, 9, 12, 46, -83, -47, 68, 74, -27, 84, -42, 17, -6, 64, -15, 91, -83, -21, -110, -123, -15, 13, -104, -71, 11, -19, -34, -58, -38, 108, 74, 76, -116, -5, -95, -73, 4, -70, -47, 66, 98, 42, -110, 124, 35, 18, -10, -88, -60, -84, 111, 1, 78, -77, 102, -17, -73, 36, 51, -34, 1, 6, 61, -79, 58, -10, 90, 56, 19, 13, -69, 24, -102, 29, 120, -56, 53, -24, -3, 114, -55, -96, 57, 29, -89, 32, -71, 8, 122, 18, -102, 78, -49, -121, -1, -3, -86, -61, -22, -40, 11, 73, -16, 87, 67, 121, -57, -8, 114, -67, 50, -77, -15, 24, -25, -100, 20, -74, 38, -105, -122, 61, 38, 38, -32, -31, 109, -124, 29, 97, -1, -37, -74, 61, 24, 95, -121, -108, 17, -111, -105, 23, 65, 90, 5, -73, 52, -124, 66, -71, 91, -111, -52, -85, -86, 75, 79, 81, -92, -59, 65, 31, 52, -47, -2, 121, 28, -88, -25, 12, 18, 61, 59, 16, -100, -17, -26, -114, 19, 122, -17, 74, -35, -76, 3, -47, -17, -12, -60, 108, -123, 31, -88, -9, 103, 95, 97, -87, 69, 47, -55, 51, 106, -113, -12, -41, -71, -33, 85, 66, 37, -100, 25, 9, 113, -30, -106, 13, 86, 122, 81, 24, 18, -50, 78, -1, -19, -19, 42, -62, -9, -6, -30, -66, -97, 109, 94, -87, -75, -48, -74, 77, 100, 50, 26, -24, -10, -10, 34, 8, -22, -114, 28, -94, 18, 4, -124, 35, -74, -9, -70, -83, 34, 121, -13, -49, 71, 107, 14, -79, -94, -43, 109, 103, -59, 67, -14, 115, -51, 88, -1, 117, 113, -22, -103, -24, 114, -80, 62, 8, 10, 103, 9, 108, 116, -48, -75, 70, 109, -8, -34, 105, -23, 52, -108, 57, 124, 42, -75, 50, -18, -90, -16, -3, -99, 17, -89, -91, 45, 69, 124, 97, 30, -107, -53, 75, -97, -95, 10, 90, -35, 116, 68, -77, 97, 116, 100, -74, -40, -108, -111, -28, 104, -105, 84, -122, 57, -122, -20, 22, 7, -91, 5, 79, -119, -92, 78, -59, 84, 44, -47, 82, -55, 96, -45, -35, 24, -102, 26, 62, -58, -47, 51, -93, 105, 65, 90, 101, -22, 83, 61, 121, 49, -11, -87, 42, 23, 47, -39, 78, 4, -38, -49, -65, 8, -12, -82, -86, -12, 87, -118, 98, -82, 122, 114, 85, -99, 26, 112, -28, -10, 102, 112, -95, 30, -33, -11, -60, 66, -121, 54, -111, 103, -65, -98, -81, -103, 95, -113, 49, -17, 106, -71, -48, -34, -25, 57, 5, -4, -116, 59, -88, -72, 121, -122, -39, 111, 47, 5, 8, -88, -56, -63, -46, 93, -51, -37, 31, 0, -63, 81, 70, -35, -48, 8, 107, -6, -94, 75, -110, -19, 27, -80, -31, -20, 110, -112, 71, -42, -24, 94, -52, -82, -5, 54, -116, 119, 59, 88, -93, 0, -124, 106, 54, -87, -103, -20, -82, 71, -44, -60, -123, 51, 8, -84, -102, -6, 2, 23, 22, -31, 11, 92, 50, 5, 65, -73, 16, -116, 6, 101, -114, 107, 101, 122, -112, 49, 62, -20, 37, 94, 86, -120, 88, -124, 96, -89, 57, -31, -32, -77, 95, -48, -105, 92, -71, 14, -47, -108, -27, -37, 96, -79, -16, -96, 5, 71, -22, 10, -19, -14, 44, -43, 33, -79, 55, 49, 6, -93, -100, -87, 117, -59, 43, -91, 25, -79, 120, 112, 77, -93, 57, 70, -50, -47, 54, -34, 93, 53, 122, 25, 14, 113, -72, 26, -117, -36, 56, -80, 100, -92, -117, -105, 100, -83, 95, 8, -97, -21, 
  -99, -103, -118, -93, 116, -42, 40, -4, 17, 84, 9, 105, 23, 104, -14, -91, -78, 76, -38, -13, -67, 7, 78, -112, -54, 39, -90, 69, 43, -103, 118, -22, -115, -2, 108, 46, -44, 15, -80, -12, -50, 6, 99, 107, 40, 79, 24, 75, -51, -115, 112, -59, -99, 2, 75, -79, 17, 102, -119, 114, -69, 23, 72, -108, -90, -62, 101, -32, -121, -64, -51, -19, -70, -63, 38, -58, -99, -106, 64, 80, 87, 111, -67, -102, -87, 66, 66, -70, 54, 82, 83, -23, 38, -7, 25, -70, 102, -11, 100, 99, -76, -37, 2, 73, -120, 39, 123, 119, 112, 63, -8, 52, -84, 42, -101, -50, -89, 74, 83, -119, 52, -19, 104, 38, 49, 63, -48, -45, -46, -119, -55, -64, -43, -92, 59, 84, -17, 19, 46, -50, 59, -63, -35, -99, -24, 12, -25, 100, -96, 66, 54, -55, -85, -56, -48, 60, -85, -82, -101, 73, 63, -62, -6, 59, 84, 60, -59, -61, 27, -26, 72, -105, -64, 25, 62, 72, 58, 2, 61, -49, 40, -23, -70, -48, -54, -43, 54, -101, 76, -92, 116, 73, -114, 70, 106, 36, 26, 74, -5, 112, 12, 46, 105, -26, -31, -60, 96, 36, 67, 81, 90, -39, 27, -85, -107, -18, -12, 96, -57, 42, 3, -26, -19, 25, -54, 28, 105, -20, -48, -84, 47, 33, -2, -25, -65, -53, 88, 72, -89, 104, -8, -37, -55, 57, 102, 30, 14, 107, 56, -41, -50, -12, -80, 97, -114, -38, 90, -48, 16, 75, -19, -4, 57, -15, 36, 11, 65, 33, -28, 38, -61, -48, -80, 117, -28, 101, 99, 24, 6, 68, -8, 59, 27, 97, 73, 32, -77, 79, 38, -117, 95, -20, 16, -33, 69, 55, -81, 63, 66, -2, 28, -69, -71, -58, -111, -23, 58, -13, 16, 108, 16, 28, -113, 83, -109, -70, 83, -26, -13, 29, -109, 6, -93, -13, 46, -40, -83, 19, 58, -98, -89, -60, -121, -8, -105, -112, 118, 9, -103, -101, -13, 18, -24, -46, 116, 45, -71, -84, -11, 122, -22, 119, 110, 62, -87, -27, -5, 122, 54, 120, 104, -28, 117, -54, -19, 37, 71, 86, -52, 83, 86, -98, 83, 108, 8, 93, -28, 78, -114, -64, -60, 121, 122, -43, -46, 22, -65, 121, 81, -118, -38, 52, -92, 1, 24, -76, -51, -120, -112, -109, 58, -95, 58, 107, -47, 118, -115, 51, 73, 38, -51, -15, -63, -64, -18, -6, -9, -14, 105, -26, -23, -31, 20, -19, -8, 102, -90, -99, -2, -19, -85, 109, 125, 113, -46, -116, 65, -122, 40, 101, -62, 2, 115, 29, -94, -76, -72, -112, 80, 20, -94, -66, 54, 35, -111, 70, 27, 70, -101, -22, -6, -100, 105, 10, 26, 94, 64, -14, 24, -4, -39, 39, 64, -94, -77, 35, 37, -75, 71, -18, 23, -114, 26, -10, -84, -20, 45, 71, -37, -52, -31, -80, -39, 44, -80, 78, 3, -121, 14, -59, -105, 120, 17, 68, 121, 44, -20, 23, 3, -119, 65, 49, 119, 21, 124, -70, 108, -35, 21, -111, 106, -53, 17, 116, -32, -113, -104, -5, -94, -110, 70, 14, 5, -107, -93, 77, -104, -81, 91, 24, 119, 1, -110, -15, 48, 18, -42, -97, 84, 55, -98, 15, 20, 103, 74, -65, 40, 59, -74, -43, 60, -80, -16, -116, 60, 3, 18, -21, 106, -36, -95, -44, 117, 91, -38, 75, -96, 66, -22, 112, 1, -102, 67, 46, -69, -114, -45, 63, -118, 1, 53, -115, 20, -120, -88, 49, 25, -83, 90, -121, -51, 1, 94, 22, -76, -96, -68, 16, 23, 33, -85, -51, -92, -85, -35, -112, -10, 15, 109, -28, -54, 96, 77, 77, 58, -43, -27, -44, 99, -122, 87, -1, -43, 48, -89, 48, 96, 81, 27, 3, -121, -112, 83, 5, -72, -112, 8, 92, -17, -62, 28, 42, -56, -34, 19, 12, -97, -54, 25, -124, -10, 42, 62, -52, -38, 122, -96, -51, -55, -113, 59, -68, -48, -118, 122, -69, 99, 105, -39, 15, 26, -109, 64, 38, -99, -120, 46, 87, 50, -69, 51, 48, 13, -13, 97, 20, 33, -91, 29, -59, -109, 121, 47, 15, -30, -94, -70, -19, -44, 7, -15, -80, -10, 58, 13, -29, -119, 8, -38, 36, 37, 19, 40, -10, 116, -52, -68, -70, -45, -22, 26, 102, 22, 40, 115, -17, 16, -58, 34, 65, -58, -75, 91, -118, -42, -68, 15, 22, -103, 112, -63, 42, -65, -96, 12, 73, -86, 12, 47, 1, 33, -42, 29, 51, 39, 42, -125, 39, -111, -48, -24, -122, -59, -23, -109, 5, 47, -3, -101, -37, -76, -28, 105, 48, 3, 60, 77, -85, -41, -87, 3, -97, -97, 55, 98, -86, 93, 117, 59, 54, -19, -124, 23, 53, 51, 88, 116, -16, 64, -87, 28, -8, 83, 0, 14, 53, 60, 68, -78, 28, 56, 1, -14, 28, 116, -118, -109, 48, 78, 121, -68, -103, 125, -48, 26, 10, 67, 
  101, 66, -7, -24, 11, 120, 30, 85, 94, 114, -28, 100, 14, -85, -76, 53, 16, 70, 94, 89, 60, -50, -6, 27, 85, -88, -28, 97, -80, 74, -110, 47, -83, -47, 87, -98, 98, 59, 98, -54, -53, -38, -124, -113, -107, -15, -125, -2, -7, 18, -32, -14, 99, 122, 117, -64, 96, 47, -118, 52, -33, -19, 76, 12, 9, 76, 88, -74, 42, 57, -86, -62, 1, 118, -43, 30, -82, 44, -70, -26, -97, -44, 50, 102, 28, -39, 87, 119, -55, -99, -8, 93, 35, -83, -110, -100, -9, 64, -28, -97, -115, -37, 84, -96, 48, 70, -76, 20, 77, -25, 5, -12, -104, -75, 48, -10, -59, 122, -95, -79, 75, 101, 70, 90, 105, 31, 0, -124, -81, 89, 123, 93, 68, 33, 34, 104, -25, 92, 63, -49, 90, -124, 94, 11, -34, 98, -26, 45, 28, -101, 44, -125, -97, 86, 15, -5, 37, 64, 26, 81, -98, -51, 98, 117, 105, -23, -71, -99, 83, -68, -24, 37, 18, -65, 70, -104, -123, 34, -83, 79, 26, -94, -102, -110, 70, -94, 11, -96, -38, -19, 13, 100, 106, 90, -116, -65, 2, 37, 99, -42, -66, -118, -47, 57, -45, 27, 52, -47, 109, 37, -122, 38, -117, -1, 53, -43, -45, -123, 17, -11, 62, -125, -89, 29, 86, -23, -121, 50, -61, -70, 86, -121, 45, 113, 29, 4, -67, 83, 96, 2, 45, -53, -112, 64, -43, 16, 88, 91, -48, 93, -46, 0, 121, -42, -123, 68, -106, -7, 56, -67, -104, -39, -66, -14, 77, 3, 98, -68, 102, -43, 37, -119, 66, 110, 48, 109, 82, 101, -27, 8, -110, -39, -76, 12, -38, 106, -5, -61, 99, -2, 34, 37, -33, 14, 24, -4, 90, -115, -110, -76, 36, -71, -16, 31, -68, 48, -113, -70, 8, -9, 45, -112, 72, 24, -81, 25, -4, -71, 7, -79, -89, -66, -90, 48, -99, -118, 97, -27, -40, -38, -83, -72, 111, 41, 85, 113, -18, -54, -106, 78, 81, 84, -43, 4, 87, 17, 123, -104, 49, -78, 89, -10, 80, 114, -71, -123, 112, 77, 113, 31, -51, -32, -50, -120, 70, -19, 32, -78, 87, -62, 83, -53, -14, -105, 71, 52, 1, 36, -91, -110, -124, -14, -118, 9, 117, -123, 104, -23, 93, 120, -16, 33, 56, 27, 79, -20, -122, 60, -22, 64, 110, 22, -91, 102, -38, 35, 46, 106, -43, -49, 37, 91, 72, 83, -124, -10, -91, -16, 17, 88, -66, -24, 42, 80, 121, -28, -51, 116, -103, -20, -118, -71, -15, 38, 79, -115, 9, -61, -59, -125, 123, -26, -33, -72, -119, 108, -95, -5, 60, 113, 29, 121, 69, -121, -83, -100, -123, 3, 21, -7, -117, -84, -80, -94, -89, -99, 50, -70, 105, 71, -11, -119, -40, 113, 13, -117, -80, -53, -37, -42, 3, 99, -65, -91, 89, -36, -21, -84, 0, -65, 70, -26, 35, -109, 20, -115, 122, -90, 39, 101, -112, -94, -44, 61, 83, -30, -29, -91, -12, -42, -43, 42, 112, -114, 63, -14, 89, -124, -76, -70, 66, 58, -64, 20, 73, -15, -106, 49, -107, -126, 89, -125, -102, 69, 33, 122, 99, 18, 110, 24, -13, -102, 11, -52, -9, -108, -47, 44, -45, 23, -16, -33, 54, 42, 63, 6, 86, -52, 93, 89, 64, -123, 5, 99, 29, 96, -9, -39, -56, -96, -85, 19, 0, -107, 87, 56, -33, 76, -63, -85, 67, -94, -77, 36, 8, -85, -17, -120, 101, 76, 24, 54, 16, -111, 74, 15, -51, -58, -100, 11, -43, -90, 11, -103, -73, -111, -120, 106, -80, 96, -62, -62, -101, 40, -114, -97, 114, -25, 121, 4, 47, 98, 120, 98, -92, -4, -28, -20, -4, -83, -36, -89, 43, 72, -71, 99, -61, -99, 13, -109, -9, 8, 82, 98, 5, -32, -43, 43, 95, -33, 105, -36, -114, 37, -88, -45, 114, -112, 9, -46, -96, 52, -41, 104, 55, -9, -61, -8, -66, 55, 46, 37, -60, -101, -7, 47, -45, -21, 88, 118, -59, -6, 116, 66, -58, -63, -42, 110, -13, -101, 20, 38, 4, 47, 50, -68, -122, 102, -94, -110, 112, 93, -29, -41, 105, -16, -12, -63, 45, 119, -60, -78, -1, -11, 57, 83, 114, -25, -73, 23, 115, 107, -53, -107, -35, -78, -106, -18, -63, 84, -92, 74, -116, 120, 17, -27, -117, -9, 38, -1, 67, -65, 65, 17, -47, 40, -50, -55, 102, -13, 49, 53, 20, -39, 54, -116, 91, -8, 7, 4, 32, 114, 35, 113, 117, 112, -21, -67, -73, 7, -66, 104, 106, -102, -79, -63, -93, 58, 18, 14, 10, -4, 80, 20, -89, 27, -9, -54, -82, 12, -42, -68, -92, 7, 80, -47, 23, -88, 36, 79, -76, -19, 16, 9, -87, 116, 87, 93, -34, -92, 116, -13, -86, -7, 15, -60, 27, 63, 99, -77, 104, -7, -9, 72, 44, -80, 110, 101, -124, 122, -49, -63, 88, -112, 69, -89, -54, 
  47, 84, 21, -70, 96, -40, 33, -54, -17, 115, -9, -61, -89, 103, 109, -119, 63, -7, -118, -26, -115, -25, 111, -20, -103, -14, -91, 38, 97, -52, 82, -41, -39, 104, -106, -69, -65, -13, -92, 114, -29, 27, 22, 94, -11, -53, 73, -52, -19, 51, -37, -43, -40, -95, 98, 83, 87, 2, 72, 51, -93, -71, 43, -16, -31, 77, 110, 105, 106, -100, -118, -99, 33, -12, -102, 85, 2, 37, -64, 50, 11, -11, 108, -16, -73, 78, -79, -26, -18, -36, 97, 61, -94, 27, 11, 105, -121, 69, -101, -98, 85, 121, -28, -75, -40, 93, 33, -18, 57, -12, -74, 72, 20, -60, -13, 108, 31, 44, 89, -121, -46, -7, -20, -79, -34, 86, 65, -96, -76, -12, -18, -97, -39, 28, 105, -89, 80, 83, 65, -26, 29, -122, 125, 72, 56, -10, -108, 112, 106, 108, 107, -54, -6, 50, 60, -32, 95, 113, -36, 88, 62, 71, 99, 36, -76, -2, 115, 72, 38, 66, -56, -68, 89, -88, 4, 50, -121, 99, 91, -93, -20, -123, 20, 6, -35, 44, 72, 53, 100, -60, -86, -7, 109, 52, 95, 46, -13, 114, -65, -17, 84, 124, 71, -6, -87, -123, 55, -94, -100, 95, 45, 103, 87, -64, 101, -21, 62, -124, 97, 17, -36, 23, -113, -97, 106, 50, -116, 64, -66, 27, -34, 112, 91, -84, -83, 5, -115, -3, 6, 20, -114, 113, -103, -68, -8, -53, 87, -23, 23, 32, 13, -118, 9, 19, -58, 100, -81, 102, -95, 36, 97, -97, 30, 103, 60, 90, -12, 37, -107, -53, 79, -66, 80, -42, 24, -71, 83, 17, -64, 70, 33, -29, 72, 100, -9, 82, -55, -99, 52, -14, 56, 27, -104, -4, 119, -95, 45, -109, -54, -123, -35, -93, -89, -22, -38, 105, -26, 122, -8, -110, 42, -41, 122, -96, -98, -27, 63, 17, -113, -17, -105, -105, 34, -117, -102, -4, 117, -55, 30, -77, -7, 1, -22, -13, 120, 20, -109, 58, -64, -80, 109, -110, 66, 95, 78, 35, -23, -15, -55, 15, 107, -62, -116, 30, -35, -122, -113, 41, -122, -19, -103, -53, 69, -95, -79, -51, -61, -31, -9, -94, 84, -58, -97, -32, 55, -1, 40, -7, -51, 80, 49, -103, 17, 78, 22, -49, 105, 38, 88, 46, -21, -32, 29, -122, 104, 86, 37, -5, 7, 24, -16, 90, 11, -93, 91, -43, -111, -58, 19, 33, 106, -62, -29, -42, -43, -52, 73, 8, -54, 36, -99, 39, 59, 71, -32, -104, -104, 102, 99, 111, -57, 45, 86, 103, 48, 61, 61, 47, 124, -40, 99, 84, 99, 85, 77, -37, -84, -117, 65, 93, -8, -35, -37, 33, 108, 81, 82, -49, 27, 6, 41, 69, 104, -52, 75, 89, -46, -21, -55, -95, 120, 40, -62, -52, -15, 17, -31, 11, 115, 6, 12, 68, -24, 12, -78, 57, 112, 71, 21, 33, 81, 79, 31, 16, 107, -24, -33, 95, -79, -96, 120, 70, 33, 121, -45, 98, 13, -81, -14, -54, -67, -70, 77, 18, -123, -85, -75, -75, 66, 51, 27, -96, 47, 21, -125, 53, -113, -23, 55, 46, 122, -14, -91, 30, -91, 125, -80, -11, 74, -93, -107, -53, 43, -32, 104, 83, 1, 29, -44, 44, 16, 62, -39, -112, 90, 39, -71, -10, -12, -69, -76, -95, -36, 64, 33, -119, 22, -62, 63, -86, -13, 89, -74, -120, 0, 90, -95, -20, 0, 8, -7, -116, -48, -72, 24, -47, 87, -118, 80, 58, 40, 26, -62, -8, -79, 35, -63, 116, -80, 14, -61, 42, -14, -115, -36, 51, -28, -121, -46, -69, -57, 113, 104, 70, -112, 114, 9, -39, 12, 24, 48, 10, -95, 20, -122, -58, 18, 9, 88, 108, 124, -65, 72, -39, 72, 25, -88, 59, 50, 59, -24, -122, -59, 93, -62, -12, -67, -100, -101, 15, -19, -24, 4, 26, 56, -74, -9, 8, -71, -63, 74, -36, -43, 31, 90, -91, 2, 103, 44, 71, -24, 105, -77, -87, 78, 33, -67, 29, -68, -81, -22, 109, -9, 34, 62, 73, -5, -121, -101, -72, -36, -116, -46, -87, 0, 66, 37, -25, -87, -93, -79, 91, 60, 60, 32, -57, 125, 18, 12, 56, -33, 8, -107, -112, -45, 46, -121, 29, 8, 42, 93, 75, 75, 34, 112, -1, -58, -112, -77, -49, -80, 93, 109, 27, 29, -37, 104, -20, -26, -121, -98, -58, -74, -67, -89, 37, 33, 48, -60, 55, -101, -90, -122, 84, 94, 44, 115, -111, -10, 93, 76, 73, -52, 113, -30, 124, 93, -71, 56, 3, -112, 120, 21, -50, 0, -92, 71, 19, -115, -27, 73, -108, 10, -40, -115, 83, 78, 105, 73, -40, -16, 118, -87, 24, -75, -122, 0, -104, -80, 32, 42, 99, -48, -89, 120, -44, -17, 69, 45, -22, -94, -77, -31, -63, -65, -47, 60, 107, -106, -71, -61, -6, 60, 25, 28, -93, 111, 123, 51, -71, 107, 61, 107, 93, 26, -3, -110, 
  12, 29, -37, 82, 15, -31, 60, -26, 37, 91, 119, 107, 58, -52, 4, 25, -74, -66, 33, 99, -121, -47, 50, -50, -123, 98, 67, 21, 106, -56, -123, 124, 35, 58, 85, 59, 109, -74, 69, -115, -40, -9, 81, -36, -72, 9, -69, -10, -3, 114, -81, -77, -15, -28, 79, 71, 22, 114, -113, -54, -5, 4, 118, -19, -1, 79, 41, 78, -126, 106, 96, -100, -1, 43, 111, -93, 45, 28, -42, 123, 31, -66, 67, -20, 73, 64, 77, -71, -86, 119, -28, 74, -82, -24, 58, -13, 73, 75, 87, 80, -94, -6, -40, -124, 0, -73, 61, -15, -117, 117, 106, -101, 80, 10, 39, -77, -65, -124, -89, -75, -88, 16, -71, 8, -105, 36, -34, 6, 60, -53, -68, -4, 102, 76, -38, -63, -58, 9, -7, -78, 112, -102, -36, -89, 38, 2, -102, 67, 114, -27, 23, -38, -101, -113, -52, 7, 53, 75, 56, -21, 39, -59, -99, 64, -110, 66, -93, -94, 11, 41, 77, 13, 26, -120, 121, 82, 123, -51, 26, -80, 65, -27, 73, -64, 8, 67, 120, 101, 57, 19, -117, -58, 100, -109, -25, -95, -21, -118, 91, -125, -2, -14, 115, -60, 110, 112, -90, 114, 119, -124, 51, -39, 68, -39, -38, 65, -27, -83, -120, 42, 25, -126, 48, -64, 49, -32, 107, 5, -92, -37, -91, 0, 3, 43, 110, 79, 118, -119, 36, -64, -4, -106, 105, 81, 124, -7, 9, -125, 121, -66, 63, 32, 6, -12, -8, 106, 24, 5, 67, -33, -17, 49, 103, -18, -20, 57, -111, -29, -106, 58, -106, -78, -13, 90, 110, -19, 30, 54, 85, -71, 105, -69, -53, -80, 4, 93, -118, -107, -68, 74, -31, 16, 57, 3, 88, -33, 9, -29, 81, -83, -47, 46, 33, -118, -27, -100, -110, -89, -76, 22, 13, -109, 59, 82, 34, 116, -55, 29, -56, 63, 70, 4, 76, -77, -48, 6, -29, -22, 80, -87, -125, 105, 97, 26, 53, -31, 123, -22, 93, 52, 7, -64, 119, -25, -90, -78, -125, -17, 76, -44, -29, 68, -117, 104, 36, 41, 110, -77, -106, 48, 113, -122, -55, 80, -20, 44, 75, 81, -18, 99, -1, -122, -17, 120, 16, -60, 25, -85, -37, 121, 96, 34, -101, 35, -112, 124, 96, 35, -99, 25, 62, -126, 17, -6, -109, -89, -22, 86, -38, 74, -57, -61, 107, -32, -3, -105, 29, -84, -17, 95, 80, 24, 20, -64, 21, 44, 84, 52, 17, -19, -112, 15, 49, -71, 104, -97, -57, -37, -57, -10, 26, -124, 81, 121, 67, -33, -76, 100, 96, -21, -119, 70, -44, 53, 43, -5, 107, -62, 114, -52, 86, 67, 84, -33, -52, 119, 49, -35, 118, 69, -47, 8, -2, 29, 74, -91, 56, -79, -9, 95, -72, -15, 70, 31, -66, -17, 106, -84, -17, 98, -42, -72, -14, -32, 67, 110, 13, 30, 98, 103, 22, -98, -9, -23, -119, 41, 49, 11, 12, 84, -49, 69, 48, 51, 22, 0, -7, -102, -82, 24, 90, -55, 42, -12, 35, 20, 123, 34, 49, 61, 68, 26, -42, -79, -108, 69, -39, -19, 119, -29, -117, 77, -95, -19, -122, 65, 46, -29, -56, -60, -24, -89, 121, 11, 52, -107, 32, 51, -77, -16, -88, -85, -72, 10, -79, -70, 75, 78, 79, 84, 119, -110, -99, -71, 24, -63, 95, -74, 9, -92, 14, -3, 89, 7, 94, 96, -36, -123, -74, 116, -60, -47, -105, -103, 114, 36, -18, 7, -33, 50, -78, 51, 94, 124, -7, 72, 123, 111, -52, -2, 12, 90, 101, 44, 84, 117, -7, -98, -47, -81, -45, 38, 8, -86, 38, 57, -2, -64, -57, -82, -68, 38, -48, 99, -12, -102, -84, -114, 21, 103, 67, 41, 31, -57, 91, -75, -69, -51, -5, 23, -48, 2, 49, -7, 34, 35, 59, 52, -40, 1, -60, 42, -2, -45, -77, 112, 123, -111, -48, -85, -58, -83, 115, 48, 43, -112, -98, 102, -35, -41, -5, -64, 89, -16, 21, 79, 4, -76, -25, -20, 37, 53, 109, -4, 45, -114, 102, 83, -18, -34, -27, 121, -60, -85, -18, 11, 61, 110, -92, -116, -44, -119, -4, 62, 10, -2, 100, -86, 50, -110, 113, -9, 100, -106, 12, 19, -74, 0, 63, -48, 4, -65, -119, 5, -77, -31, 119, 90, 58, 95, -120, -2, 42, -18, 15, 49, -13, 30, -4, 44, 17, -66, 70, -10, -107, -126, -21, -57, 109, 98, -33, -98, -62, -121, -27, -122, 5, 49, 62, 50, -107, 76, 23, 101, -39, 5, 16, -95, -79, 23, -94, 4, -106, 83, 60, 33, -52, -62, 1, 5, 115, 60, -124, -114, -71, -33, -7, -57, 26, -63, -116, 6, -26, -18, -3, -88, -29, -48, 72, 43, -90, -106, -30, 94, -28, 52, -32, 25, -6, 7, -77, 1, -83, -105, -24, 12, -120, -120, -117, 39, 81, -113, -77, -25, 6, -94, -106, 93, 100, 99, 93, -9, -13, -117, -24, 93, -24, 
  -73, -123, 123, -59, 59, -42, 63, 77, 12, -46, -104, -21, -101, -33, 12, -19, -67, -56, -53, -72, 27, 51, -71, 45, 71, 5, -92, -17, -52, 8, 19, -3, 89, 81, 99, -119, 31, 11, -90, -42, 0, -98, 86, -110, -46, -1, 77, -120, 87, 12, -93, 7, 72, 60, -21, -57, -45, 13, 90, 97, -121, 76, -28, -33, -117, 9, 72, 108, -90, -112, 88, -19, 97, 4, -37, 34, 98, -13, -33, -6, 58, -115, -53, 58, -48, 74, -27, 65, -97, -69, 36, 124, 81, -96, 71, -9, -119, -31, 0, -65, -68, -61, -125, -39, -82, -89, -60, -92, 98, 100, -122, 59, 30, 27, -40, -58, 60, 15, -50, -106, -37, -39, -37, 42, -3, -104, -122, -115, -71, 86, -92, -39, -21, 14, 55, 52, -67, 39, 84, -50, 66, 12, -32, 44, 25, 8, -33, 3, 83, 23, 119, -115, -120, 39, 2, -60, -99, 30, -106, 63, 107, -65, -45, 120, 114, -101, -112, 57, 43, 55, -82, 124, -50, 35, 14, -122, -108, 60, -20, 32, 117, 9, 22, 25, 14, -68, 65, -84, -86, 16, -92, -102, -37, 16, 75, -62, 20, 24, 70, -111, 50, 47, 47, 31, 112, -97, -101, 106, -99, 38, 91, 90, -77, -60, 21, -97, 56, -57, 50, 44, -33, 46, 99, 85, -36, -98, 64, 0, -93, -118, -56, -34, 97, 14, 118, -9, 108, -95, -81, 100, 124, -3, -26, 3, -14, -49, -34, -93, 112, -88, -63, -111, -34, -59, 75, -10, 56, -50, 95, 76, -125, -83, 114, -46, -91, 35, -98, -107, 8, 45, 85, -72, 2, 106, -18, -85, -22, 117, 118, -39, -81, 117, 46, -49, 62, 68, 79, 76, -67, -13, -95, -50, -83, -9, -101, -49, 79, -114, -104, 26, -2, -122, -78, -63, -124, 1, 93, 87, 1, -15, -72, 107, -112, 61, 81, 59, -63, 52, 43, 75, 109, 101, -119, -27, 18, -75, -46, 0, 124, -8, 31, 109, -111, -58, 59, -98, 47, 16, 107, 122, 101, -50, 4, 125, -14, 40, -59, 117, -102, 31, 97, 65, 91, -9, -49, -4, 47, 44, -106, 115, -104, 108, 124, 120, 88, 76, 75, -41, -122, 15, -112, -25, 55, -97, 10, 96, 94, -5, 25, 98, -17, -50, -120, 19, -101, -94, 50, -77, 123, -62, -106, -2, 94, 50, 50, 76, -85, 90, -118, -67, 23, -38, -6, -68, -94, 91, 56, 64, -80, 102, 124, 64, 102, -73, -116, 69, 95, 115, -35, 40, -53, 29, -82, 39, 9, -115, 22, -4, -8, 112, -4, 124, -82, -101, 76, 123, -45, -85, 44, -31, 23, 75, -37, 69, -110, -46, 10, 62, -111, 27, 93, -113, 59, -87, -15, -39, -47, -37, 59, 83, 5, 119, 33, -13, 101, 87, 85, 71, 39, -38, -40, 30, -9, 90, -29, 16, -53, 110, -22, -110, 51, 111, 55, 52, -100, -3, 75, -82, 48, 70, 43, -68, -79, 23, 14, -70, -111, -5, 62, 60, -4, -13, 56, -37, -50, 11, 57, -96, -97, -66, 4, 39, 3, -78, -48, 37, -81, 102, -55, 121, 1, 121, 122, 27, 54, 44, -64, 24, -24, -108, 6, 100, -104, -107, 43, 77, -11, 7, 40, 49, -66, -31, 1, 125, -111, -120, -50, 79, -35, -22, 70, -4, -122, 82, -4, 82, -61, 19, 17, 118, 112, -77, 78, -68, -47, 47, -30, 61, 71, -34, 102, 115, -102, 105, 57, 45, 5, -15, -72, -115, -68, 101, 2, 54, 45, 70, 24, 115, 40, 42, 29, -63, 2, 97, -29, 55, -57, 3, 59, -122, 49, 109, 30, -120, -95, 79, -3, -1, 96, 112, -125, 20, 125, 5, -105, -6, -69, -82, -46, -42, 42, 97, 82, -39, -106, 16, -16, -110, 91, -43, 71, 77, 38, -75, 102, 80, -2, 35, 114, -119, 105, -44, -32, -45, 122, -54, 4, 117, 85, 18, 35, -2, 57, 121, -53, -45, 76, 88, -70, -101, -51, 29, 61, 15, 52, 96, -41, -1, -97, -7, 31, 87, 50, -81, -73, 116, -74, -106, 98, -113, -24, 110, -104, -37, -57, 103, 68, 2, 46, -12, -108, 125, 115, 107, -13, -29, 8, -49, 98, 56, 78, 19, 108, 100, -104, -84, -108, 64, -58, 14, 110, 86, 58, -125, 82, 26, -23, -12, -18, 86, 50, 92, -46, 22, 38, -71, -34, 12, 91, 44, 97, 27, 109, 57, -109, -101, -83, -80, -117, -51, -74, 121, 46, -77, 58, 27, -82, -82, 61, 59, -33, 19, -91, -46, 80, 120, -32, -82, -97, -18, 14, -99, -112, -24, -107, 110, -73, -114, 30, 46, -61, 98, 34, 48, 69, -47, 75, -30, -63, -82, 108, -76, -78, 4, 114, 73, 26, -21, 74, -61, -48, -26, -63, 57, 33, -6, 48, -18, -23, -115, 57, 89, 69, -34, -109, -47, 57, -85, -66, 63, 32, 6, 20, 2, -69, -77, 33, 48, -6, 4, 120, 109, 60, 13, 56, 13, -30, -95, 24, -111, 77, 110, -25, -111, 64, 118, -100, 
  -78, 117, -40, 41, -32, 106, -76, -63, -19, 98, -74, 55, -51, -37, 121, -96, -12, 83, 75, 84, 27, -56, 29, -101, -58, -38, 73, 43, 10, 10, -116, -103, -110, 71, 78, -42, -34, 76, -7, 91, 103, -73, 96, -16, -51, 71, -117, 114, -46, 81, -17, 67, 29, 40, 22, 67, -16, -52, -20, -103, 71, -67, -94, -47, -10, 57, -70, -112, -117, -37, 100, -23, 30, -64, -52, 92, -53, -53, -90, 120, 22, 117, 77, -66, -37, -116, -59, 61, 64, 114, -104, -10, 2, -48, 56, -4, -114, -53, -7, 1, -59, -112, 31, -56, 17, 110, -53, 9, 41, -14, 112, 68, -126, 89, 111, -57, -67, 121, 95, -84, 39, 118, 89, 111, 4, -12, 18, -19, -88, -71, -58, -14, -59, -7, -14, -35, 9, -23, 84, -62, -88, -29, -124, 27, -44, 32, -27, 14, 115, -107, -114, -31, 121, -71, -79, -125, 96, -37, 61, -56, -121, 40, -115, 67, 16, -122, 76, -121, -111, -41, 105, 78, 3, -120, -20, 56, 84, -13, 67, 55, 54, -40, 35, 98, 18, -120, 60, -4, -127, 82, 17, -70, 122, 62, 89, 89, -58, 75, 42, 100, -75, -23, 59, 43, 19, 48, -96, 19, -122, -3, -22, -119, -24, 21, 38, -79, 78, 123, 0, 107, 50, -68, -97, 46, -100, -46, -4, 94, 28, -3, 44, 2, 77, -94, 28, 41, 113, -29, 111, 49, 22, 6, -4, -39, 58, -117, -63, 39, 101, 100, -74, -121, -83, -125, 67, -52, -109, 93, -121, 109, 3, 19, 89, -81, 36, 75, -80, -121, 75, 76, -29, 63, -49, 40, 110, -67, 61, -97, 106, 24, -28, 106, 46, -112, 5, 105, -34, -99, 41, -85, -83, -33, -17, -30, -63, -126, 120, -3, 57, 14, 74, 5, 62, -46, 81, -50, -68, -38, 81, -33, 96, 92, -77, 75, 107, 8, 26, 27, 111, -32, -49, 91, -63, 22, 60, 76, -90, -10, -80, 106, -49, 20, 28, 113, -93, 17, -17, 37, -60, 37, 68, 6, -33, 15, 16, 42, -50, -56, -85, 91, -41, 86, -58, 105, -101, -49, -6, 97, 66, -103, 29, -94, -10, -98, 47, -107, -71, 113, 26, -100, 16, 9, -84, 30, -115, -46, 63, -80, 69, 40, -67, 94, -112, 26, 86, -112, 110, -26, 110, 5, 27, -118, 55, 30, -56, 13, 24, -93, -57, -64, -85, 72, -32, -33, 9, 74, 103, -4, 2, -26, -51, -126, -67, -94, -123, 109, -36, -93, -19, -56, 89, 87, -20, 15, 38, -50, -96, 48, -72, 117, -95, 103, -122, -78, -84, -63, -105, 33, 44, 35, -26, 37, 66, -59, -14, -95, 1, -118, -83, -82, 10, 33, -22, 60, -49, 44, -86, 22, 31, 41, -83, -50, 80, 26, -93, 64, -79, 86, -54, 71, 35, 11, -13, -27, -8, 65, -28, -91, 46, -89, -123, -1, 35, -39, 92, 26, 41, -126, 88, 82, -14, 99, -123, 87, -105, -50, -59, -100, 105, -109, -123, 5, -56, -28, 66, 1, 13, 103, -93, -4, 63, 85, -41, -15, -108, 31, 95, 79, 103, -84, 59, 123, 65, 123, -103, -15, 83, -126, 6, 68, 55, 14, -17, -119, 60, 73, 78, -37, 110, 70, -122, 110, -81, -17, -111, -9, 66, -1, -83, 97, -33, 91, -33, -84, -51, 52, 122, -50, 114, -25, -50, 84, 0, 104, -37, -20, -44, 23, -100, -97, -4, 33, -109, 110, 74, 25, -97, 10, -66, 4, 63, 95, -21, -80, -12, 48, -1, 19, -68, -71, -52, -42, 45, 18, 26, -7, 23, -78, -75, 54, 66, 95, -47, -93, 94, -84, -22, -14, 88, -80, -48, -59, 91, -102, -58, -58, 91, 95, 122, -85, -16, 54, 40, 66, -79, -61, -38, 118, 46, 109, -14, -93, 87, 81, -119, 94, 22, -64, -19, -107, -91, -47, -66, 53, 91, -61, 44, 100, -88, 20, 0, 25, 55, -70, 50, -27, 119, -112, -48, -102, 62, 93, -34, 1, 9, -37, -15, 78, 12, 40, 115, 54, -28, 95, -119, -2, 106, 24, 95, 118, 121, -102, 88, -47, -91, -100, 78, -33, 81, -104, -108, 87, 44, -53, -104, -4, -18, 1, 103, -78, -44, -118, -76, -107, 100, 99, -103, -18, -27, -92, 23, 14, -71, -45, -44, 22, -101, -22, -108, 91, -124, -5, 37, 78, -103, 46, -96, -70, -107, -40, -16, -65, 123, -86, -53, 111, 104, 13, -114, -80, 88, -61, -92, -45, 1, -126, 89, -3, -68, -114, -7, 22, -95, -117, 70, -26, 21, -27, 68, -86, 97, -97, -29, 53, 1, 41, 77, 89, -104, -8, 54, 17, 24, 118, -74, 119, -104, -15, -107, -29, -67, -7, -42, -80, 3, 82, 4, -42, -75, 66, 71, -97, 90, -18, -114, -7, -66, -44, -8, 64, -82, 25, 65, 112, 29, -2, -65, -99, -82, -108, -57, -60, 44, 110, 30, -50, -62, 76, -72, -77, 113, -102, -47, 94, -26, 112, 71, 95, 123, 97, -100, -103, -7, -5, -121, -10, 19, 
  -95, 104, 72, 19, -7, -2, -15, -61, -17, 37, 3, -102, -72, -113, -82, 57, 84, 58, -105, -17, -60, -113, -58, 92, 75, 46, -28, 13, 121, 114, 7, -24, -13, 76, 29, 32, -13, -42, -99, 47, 31, 119, -72, -94, 52, 37, 61, 85, 116, 30, 107, 96, -23, 33, -33, 15, -104, -20, 6, -55, -56, -44, -30, 114, -31, -42, -20, 41, 4, 119, -49, -97, 80, -21, 28, -116, 98, 29, 66, 119, 59, 120, 46, -119, 42, 59, 2, -86, 47, -34, -116, 99, 104, 67, -72, -62, 103, 82, 124, 83, 123, 73, -112, -13, 42, 21, -114, 46, 48, -4, 84, -65, -70, -107, 37, -75, -111, 35, 21, 101, 36, -122, -34, 111, 55, -4, -50, 49, -77, -84, 110, 73, -53, 77, 121, -117, -105, -19, -39, 112, 29, 66, -91, -70, 112, -33, -38, 64, 11, 14, 52, 0, -69, -76, -126, -80, -27, -17, -6, 6, 75, 123, 99, -107, -23, -95, -21, 56, 30, -123, 37, 99, 19, -123, 58, -12, -4, 115, -30, -124, -73, -87, 54, 79, -32, 95, -72, -21, 39, 72, -85, -8, -68, 13, 55, 30, -27, -28, -91, 108, 99, 61, 37, -61, -26, 4, -23, 63, 91, 58, -43, -107, -113, -107, -98, 62, -104, 16, -87, 80, 115, 6, 13, -11, -100, 36, -26, 122, -68, -123, -57, -30, 97, -97, 20, 76, -55, 68, 70, -104, 46, -52, 110, -46, 85, 119, -59, -29, 65, -3, -106, 29, -36, -18, -29, -74, -117, -3, 11, -92, -50, 74, -22, 108, 49, -105, 47, -119, -75, 112, -75, 89, 3, -23, 5, -19, -63, 82, -18, 20, 109, -43, -34, -116, -48, 7, -31, -38, -22, 21, -92, 16, 65, -55, -124, -37, -52, 62, 59, -61, -77, 104, 63, -114, -96, -59, 78, -68, -36, 82, -110, -13, 8, 30, -82, -61, 47, -87, -107, 96, 46, 36, -10, -85, -49, 32, -9, 13, -56, -23, 62, 30, -29, 25, 114, -82, -59, -41, 91, -6, -97, -6, 45, -47, -34, 93, 2, 84, 71, 97, -50, -25, -97, 41, 85, 16, 27, 36, -57, -48, -6, -88, 100, -6, 54, -49, -67, -57, -60, 22, -75, -107, -88, 90, -100, -90, -19, 9, -110, 86, 25, 62, 115, -108, -24, -103, 41, -25, 34, -47, -61, -126, -102, -19, 64, -96, 44, -17, 109, 22, 47, 78, 6, 31, -23, -46, 96, -104, -4, 94, -48, 124, 98, -52, -24, 44, 28, -11, 68, 65, 80, 19, 11, 37, -93, 80, -65, 56, -119, -33, -13, 29, 81, 77, -29, 56, 82, -21, -100, 89, -5, -89, -7, -3, -99, 115, -91, 35, 102, -38, -3, -68, -60, -115, -5, 29, -11, 70, -59, -105, -120, 22, -1, 67, 14, 64, 58, 30, -65, 106, -25, 73, -49, -35, 33, -46, -14, -5, -47, -122, 110, -94, -47, 18, 19, -69, -69, -82, -123, -78, -76, 2, -4, -102, -55, -36, -42, -35, 120, -122, -68, 6, -45, -94, 90, 64, -69, 49, 27, 97, -36, 81, 16, 105, 114, 7, 106, 81, -126, 96, -91, -57, 5, 5, 48, -54, -8, 87, -71, 112, -29, -48, 35, 107, -95, -26, -43, 84, -86, -90, -125, -104, 39, 18, -78, -92, -19, 52, 9, 0, 81, 25, -30, 41, -2, 0, -58, 20, 71, -100, -14, -83, 79, -79, 110, -81, -23, -66, -93, 34, -65, -82, -86, 27, -75, 34, -8, -57, 29, -16, -31, -20, 105, 16, 5, -127, -112, -23, 78, 44, 108, -32, 95, 40, 75, -28, 96, -2, -54, 65, 6, -108, 59, 14, -100, 44, 98, 38, 61, -93, 17, 47, -76, 0, 70, -126, 50, 89, 27, 31, 67, -60, 72, -10, 121, -80, -91, 5, -3, -6, 108, 57, -34, 70, 20, 108, 88, -101, -30, 99, -59, 54, 29, -27, -66, -90, 80, -126, -64, -87, -108, 64, 37, 59, -54, -96, -79, 35, 51, -112, 33, 109, 104, 82, 48, 82, 24, -115, -120, -124, 22, 51, -30, 12, -119, 60, 107, -103, -67, -98, 34, 24, 77, -78, 106, -52, -112, 94, -82, -43, 50, 46, 26, 74, 108, 25, 43, -63, -40, -121, 10, -121, 48, -62, 25, -83, -122, 52, 6, 48, -17, -60, 74, 28, -108, 84, 32, -51, -112, -38, 68, 105, 22, -39, 73, -96, -35, 12, -3, 113, -78, 60, 116, 114, -37, -4, -19, -119, 53, -17, -21, 12, -50, -115, 21, 70, 41, 13, -36, -54, 13, -93, 70, 115, -89, -105, 24, -121, 118, 34, 100, -46, 69, -70, 15, -37, -95, 25, 55, -38, -48, 28, 11, 118, 3, 70, -89, -32, -67, -92, 1, -33, 114, -109, -23, 48, 119, -109, 50, -10, 8, 83, -59, -107, -55, -114, -108, 72, 53, -89, 70, 65, -15, -68, 121, -14, 16, -2, -109, -35, 5, 46, -17, 122, 100, 106, 98, -30, 99, -124, 69, 42, -6, 45, 84, -48, -51, -41, 52, -91, -91, 29, -23, 63, -65, 122, -91, 
  -54, 8, -116, -105, 110, -51, 22, 89, -70, 11, 12, 54, 27, -37, -19, -35, 6, -19, -64, 99, -112, -34, 71, -100, 110, -14, -86, 121, 74, 65, 74, 23, 23, 29, -110, -113, 113, 22, -100, 23, -95, 80, -93, 96, 119, 114, 77, 108, 15, -88, -50, 83, -56, 113, 118, -81, -11, -36, 50, -100, 95, -30, 82, 96, 107, -36, -43, -52, -12, 27, 92, 85, -119, -109, 60, 94, -102, -41, 78, -115, 84, -121, -52, -121, 89, -6, 112, -106, -57, -86, 12, -93, -99, 99, 121, -66, 77, -91, 72, 71, 38, 124, 110, -65, 12, -26, -26, 60, -30, -57, 90, 105, 99, 23, 64, 62, 23, -61, 126, 49, -14, 58, 53, 125, -49, -72, -80, -44, -3, -68, -55, 44, 123, 119, 108, 78, -65, 64, 120, -29, 116, -114, 100, 18, 42, 69, 53, -12, -17, 56, 35, 87, 43, -51, -67, -106, 1, -3, -48, -16, 41, 12, 46, -110, 80, -56, -90, -80, -50, -45, 20, 104, -115, 88, 96, -59, 26, -93, -102, -93, -25, 5, 70, -52, -71, -12, 37, -59, 92, -75, -90, 8, -64, 101, -24, -87, -67, 4, -102, 73, 2, -20, 102, 110, -111, -86, 11, 125, -43, 4, -24, 64, 78, -4, 0, -116, -109, 21, -124, 95, 53, -43, -36, -23, 39, 89, -69, -17, 100, -61, -24, 44, 63, 48, -95, 2, 50, -71, 55, -30, 3, -78, 114, 51, 1, 15, -72, 24, -88, -102, 48, -83, -2, -46, 64, 23, 71, -119, -101, 126, -74, -59, -67, 82, 116, -121, 123, -75, -39, 76, 38, -90, -115, 70, -36, -120, -42, 107, 93, 95, 6, -23, 73, 8, -7, 0, -77, -54, -109, 25, 93, 97, -23, 121, -42, -109, -109, 48, -110, 73, 80, 56, -60, 19, 93, 92, -9, 96, -93, 104, -45, -78, -108, 119, -65, -59, -25, 99, 101, 28, 108, -9, -113, 83, -46, -48, 8, -27, 89, -60, -4, -67, -23, 63, 32, 36, -50, -22, -75, -104, -22, -116, 121, -81, 108, -10, 55, -16, -36, 62, 80, 41, 116, -45, -117, 56, 38, 3, 120, 98, -103, -64, -76, 105, -71, 116, 61, -12, -32, 104, 1, -74, -88, 101, -120, -51, -119, -25, 49, 18, -29, -18, 93, 114, 36, -57, 107, -107, 99, -17, 72, -43, 59, -87, 19, 122, -26, -102, 120, 85, -52, 8, 15, 124, -81, -113, -96, -118, -116, 49, 94, 6, 53, -90, 19, -119, 83, 94, 68, 17, -26, 125, -102, -1, -12, -74, 15, 79, -19, 29, 16, -26, 92, -32, 14, 32, 105, -13, 50, 82, 113, -8, 20, 38, 88, -30, 64, -81, -54, -4, 116, 126, 125, -96, 125, 106, 52, -118, 83, 105, 88, -116, 8, -25, -11, 108, 86, 83, -33, -83, -24, 34, 48, 117, 28, -115, -56, 119, -94, 33, -64, -47, -95, 77, 65, 40, -30, 123, 25, 53, -56, 71, -46, -73, -53, -33, -95, -4, 76, 119, 22, -84, 31, 115, 121, 81, 54, 21, -29, 102, 31, -83, 30, 52, 16, 61, 100, 2, -10, -86, 82, -94, 27, -117, -38, 62, -53, -82, -45, -121, 97, 18, 88, -17, 12, -8, -79, -122, -97, 49, -64, -77, 16, -13, 11, -50, 43, 121, -70, 112, 102, 82, 79, -60, 105, 16, -123, 53, 50, 59, 76, 119, -91, -104, -116, -48, 98, 64, 1, -16, -19, -15, 61, 104, 109, 75, 117, -118, 89, 16, -19, 50, 65, 80, 46, -90, 26, 100, 68, 11, 74, 1, -22, -57, 8, -37, -116, 100, 60, -77, -22, -1, -105, 88, -82, -69, -30, -81, 58, -16, -28, 7, -116, -124, -17, 52, 68, -52, 17, -13, -44, 45, -77, 0, 67, -15, 46, -97, -2, -79, -103, -112, -33, -73, 81, 33, -19, 25, 55, 83, 121, -45, 74, 30, -2, 124, -11, 110, -114, 43, 34, -23, -43, -36, 3, -86, 2, 115, 118, -57, -70, 34, 109, 49, -118, 20, -33, -107, -19, 84, 46, -22, 38, 9, 5, -110, 79, 30, 50, -109, 88, -86, 114, -121, -2, -8, -1, -37, 114, -44, 67, 18, -66, -20, 21, 81, -11, -60, 9, -52, -117, 64, 108, 77, -8, 78, -61, 91, -119, 18, -96, 83, -45, 42, -70, 69, 15, 115, 38, 73, 11, -22, -32, 84, 78, -111, -39, -11, 26, -113, -117, -50, 40, 100, -122, -11, 73, -73, 95, 47, 108, 86, -88, -94, 100, -74, -13, -69, 99, -33, -111, 87, -118, 45, -108, 30, 12, -57, 51, 97, -46, -119, 40, 49, 20, -21, -68, 81, -110, 66, -112, -8, 7, -98, 53, -26, 3, -48, 7, -79, -13, 61, -11, -44, -61, -65, -7, 26, -75, -64, 90, 80, -96, -37, -120, 104, 115, -53, -36, 122, 108, -42, -84, 67, -113, -19, 105, -28, -32, -103, -41, 82, -72, -30, -16, 100, 44, 97, -93, -65, -109, 30, 36, -117, 9, -4, 16, 47, 101, 20, -68, -116, 37, 10, -92, 92, 43, 
  -85, -28, 98, 106, 73, 45, -5, -86, -35, -33, -107, -85, 90, -14, -56, 84, -51, -22, -105, -23, 76, -109, -39, 120, -81, -106, 91, -35, 22, -10, 67, 45, 99, 10, 51, 78, 51, -17, 26, 73, -45, -124, 34, -51, 116, 94, -96, 54, 63, 7, 9, -106, -91, -57, 45, -91, 15, 47, -119, 36, 11, -33, 120, -102, 89, 44, -96, 108, -91, 68, 39, -67, -9, -104, 108, -78, -72, -73, 66, -69, -96, 63, -56, -114, -122, -66, 2, 27, -62, 21, -68, 112, 24, -63, 22, 106, 15, 118, -24, 26, -82, -68, -40, 109, -73, 55, -69, -46, 40, 59, -32, 116, 104, 109, 29, 59, 99, 98, 54, 96, 35, -34, -88, -74, 122, -45, -119, -49, -97, -91, 108, -109, -50, -36, -91, 12, -70, -15, -83, 117, 62, -51, 94, 98, 121, -89, 31, 65, -117, 16, 34, -92, 17, -11, -87, 97, -104, 68, -92, 50, 106, 103, -115, 48, -54, -73, 28, 44, -4, 77, 72, -31, 83, 77, -72, -82, 102, -9, 71, 44, -72, -88, 53, -37, -104, -41, 99, 78, -61, -52, -28, -58, -106, -16, 44, -53, -77, 80, 70, 71, -26, -60, -121, 15, 64, -24, 17, 78, -67, 105, -72, 110, -72, 33, 30, -58, -70, -111, -68, -54, -87, 56, -5, -45, 43, -109, 8, -5, -53, -121, -32, 45, 81, -46, 114, 85, 111, 0, 112, -115, 121, 41, 91, -96, -10, 35, 30, -50, 101, 97, -47, 118, -105, 83, -72, -28, -52, 93, -73, -44, -110, 40, 47, 4, 30, 70, 3, 43, -54, 9, 63, -52, -5, -123, -63, -73, 34, 69, 98, 80, 64, -80, 30, 18, 115, -56, 89, -53, 84, -51, 67, -91, 37, -47, -26, -27, 56, 94, 90, 16, 18, -10, -84, -44, -45, -30, -126, 4, 41, 7, -54, -25, -54, -22, 12, -24, 89, -116, -107, -27, -95, -106, 69, 73, 63, -8, -88, 38, 17, -109, 57, -42, 44, 111, 73, -92, 46, -55, 59, -118, 120, 49, 54, -16, 86, 4, -14, 53, -14, 4, 44, -125, 81, 4, 66, 91, 81, -124, 103, -101, 63, -100, 38, 74, -16, -32, -45, -126, 115, -115, -56, 115, 18, 60, 44, -2, -47, 6, 3, -15, 32, -125, -42, 64, 77, 14, -54, 70, 43, 1, 60, -94, -123, -40, -117, -44, -45, -55, 51, -30, 61, -4, -48, 98, -80, -112, -86, -120, 119, -25, 119, 105, 101, -49, 17, 92, 22, 53, 13, 93, -58, 94, 39, 47, -12, 96, -42, -31, -58, 89, 11, 34, 110, -99, -5, 70, -72, -118, 45, -6, 29, 81, -111, -105, 53, 119, -80, -79, -19, 56, -83, 117, 9, 47, 104, 92, -63, 87, 22, 52, -2, 43, 61, -38, -115, -23, 6, 100, -6, -34, 84, -22, -55, 36, -87, 37, 1, 116, -109, 95, -70, -119, -107, -113, 102, -73, 45, -63, 26, -106, -106, 69, 121, 89, 34, 110, 33, 111, 9, -35, -36, -114, 39, 76, 82, -13, -25, 52, -25, 3, 33, -122, 109, 78, -105, 28, -54, -96, 95, -58, -8, 34, -25, 29, -116, -30, -37, 37, 84, 110, -112, -108, -98, 47, -15, -3, 98, -74, 51, -101, 108, 1, -33, 65, -22, 87, 34, 64, 30, 86, 77, 78, 83, -114, 119, 117, -108, 109, -69, 10, 15, 100, 95, 33, -92, 65, 80, -114, -24, -82, -115, -32, -51, -95, 56, 92, 76, -98, 32, 38, 50, 0, -13, -21, 14, 15, -60, 94, 68, 7, -119, -59, -26, -59, 83, 106, -29, -11, -78, -97, 80, -45, -15, 56, 92, -126, 14, -25, -98, -95, 77, -88, -2, 54, 111, 29, 88, -98, -96, 31, 51, 40, -11, -67, -88, -18, -113, -58, 33, 89, 88, -106, 90, 5, -34, -100, -57, 65, 72, -108, 76, -63, 48, -113, 79, -92, 114, -36, 123, 63, -14, -7, -10, 74, 111, 87, 2, 83, -12, -29, -16, 5, -54, -103, 9, 84, -63, 79, 30, -58, 25, 121, 7, -65, -53, 67, 69, 68, 9, 42, -121, 12, -75, -57, 83, -47, 59, 34, -8, -7, -21, 88, 0, 32, 8, 6, -79, 99, 55, -89, 34, -73, 123, 92, -29, 9, -27, -124, 120, -109, 91, 119, 98, 102, 4, 107, 107, -47, 17, -20, -107, -51, -29, -76, -121, -33, 17, 24, 86, 110, 64, -16, -90, -58, 22, 101, -119, 63, -42, 74, -81, -72, -126, -85, -75, 105, -103, -7, -21, 45, 115, 1, -120, 117, -125, -24, 119, 13, 53, -119, 84, -117, -107, -126, 11, 78, -55, 66, 19, 86, 58, 30, 45, -32, 2, -40, -90, 79, -123, 111, 70, 30, 67, -23, -8, -3, -51, 84, 25, 9, -111, 64, 38, 74, -4, 15, -103, 104, 43, 48, -90, 103, 8, -37, 38, 43, 85, -121, -85, -16, 33, 66, 42, -52, 97, 119, 94, 49, -13, -45, 75, 15, 72, 117, 106, 30, 22, 61, 10, 59, -50, -126, -44, -99, 103, -32, -105, 
  -36, 57, 86, 59, 26, -4, 2, -106, 110, 112, -29, 95, -8, -36, 103, 41, 29, -115, 35, -18, -38, 70, 108, -108, 84, 116, -2, 115, -110, -122, -117, -88, 125, 65, 40, 17, 99, -58, 65, -28, -96, -51, 115, 48, -70, 19, -17, 89, -55, -124, 107, 87, -38, -37, -43, 3, 103, -109, 20, -44, 32, -89, 35, -92, -68, 100, 118, 85, 17, -73, 93, -70, 11, -50, -106, 81, 65, 32, -34, 100, 1, 108, -24, 24, -106, 124, -8, 101, -112, 72, -37, -2, 60, -106, 72, 102, 36, 123, 125, 111, -25, 32, 86, 65, 85, -69, 14, 10, 9, 74, -79, -112, 123, 121, 32, -124, -51, 114, 80, 59, -22, -5, 78, 78, 69, 116, -80, -26, 121, 103, -124, 108, -30, 75, 73, -46, -43, -11, -61, -14, -91, 15, 88, -96, 47, -79, -27, 124, -110, 86, 94, -84, -118, -66, -112, -119, -99, 83, 115, 125, -121, 7, 122, 17, -102, -102, -61, -95, 74, 25, -50, -6, 70, -90, 21, -70, -23, -75, -99, -125, 12, 99, -6, -122, -37, 9, -100, -16, -55, -52, -92, 33, -27, -82, -69, -40, 78, 10, -120, -18, 19, 0, -53, 85, 56, -102, -48, -7, -72, 20, -87, -113, 108, 67, 60, -96, -64, 46, 76, 87, -88, 32, -114, -26, 107, 30, -43, -87, -94, 116, -56, 62, -14, -3, 65, 88, 120, -40, -114, -29, 86, 96, 8, 93, 79, -125, 31, -31, -77, -38, 102, -69, -29, 61, 68, 116, 27, -13, -93, 85, 115, -26, 104, 3, -20, -53, -28, 16, 76, 18, 21, 24, -51, 113, 115, -4, -32, -108, 120, 20, -37, -61, -6, -5, -36, 35, -22, 112, 87, -99, 111, 98, -116, -2, 21, 53, -25, -118, 66, 26, 9, -4, -91, 4, -114, 111, -86, -112, -39, 114, -14, -61, -68, 48, 112, 100, 7, -32, 87, -39, 30, 125, 7, -91, -28, 12, 55, -46, 78, -25, -53, -121, -26, -26, 56, -79, -46, 112, 61, -63, 55, 20, -80, -13, -48, -13, -88, -20, 12, 98, 71, -81, -4, -2, 5, 6, -124, -91, 5, 109, 21, -110, -116, 2, 117, 77, 75, 27, -55, 4, 7, -111, -6, -33, -5, -122, -84, 37, -73, 63, 77, 2, -47, -10, -37, -59, 54, 63, -27, -24, -117, 99, -102, 30, -49, -90, 83, -56, 15, -20, 110, 116, -75, -41, -58, 27, -111, 2, 66, 94, -122, -98, -20, 34, -101, -111, -41, 52, -37, 5, 56, -78, 35, 74, 52, 121, -1, -63, -87, -19, 75, -73, -111, -77, 109, -115, 69, -99, 72, 31, 25, 62, -28, 1, 29, 40, 70, -76, 63, -30, -115, 125, -68, -108, 114, -22, 49, -60, 100, -101, -7, 41, 62, 1, -75, -81, -37, -6, -67, -38, 32, -75, 10, -112, -121, 115, 20, -121, 76, 15, 96, -84, 70, -102, 67, 20, -40, -120, -24, 0, -114, -28, 111, 80, -45, -111, 111, 56, 11, 87, 115, -113, 83, 96, 115, 100, -76, 91, 71, -31, -10, -117, 3, 110, -84, 38, -15, -75, 67, 63, 16, 117, -5, 67, 38, 74, 92, 20, 13, 11, -32, -54, -19, 2, -8, 61, 26, 46, 17, -125, -120, 98, 34, 74, 49, -25, 30, -113, 57, 33, 32, 57, -124, 105, -25, 60, 93, 30, 97, 40, -115, -56, -43, 115, 71, 56, 99, 23, -12, -23, 93, -58, -59, -105, 59, 78, 71, -56, 106, 106, 9, -59, 68, -82, 111, -82, 90, -83, -50, 55, -91, 52, 112, 86, -103, 12, 68, -72, 10, -68, 77, -32, -118, -91, 67, -46, -50, 29, -80, 61, 36, 32, -45, -30, 111, 76, 89, 49, -22, -67, -94, 40, -104, -8, 107, 50, -119, -113, -84, -120, -119, 112, -3, 110, 86, -104, -91, -91, 45, -64, 86, 1, 62, -23, 103, 102, -61, -67, 21, -36, 16, -55, 60, -17, 115, -115, -71, -78, -89, -52, -4, 97, -26, -18, 92, -66, 1, 67, 121, -114, -101, 84, 87, 35, 90, 30, 88, 116, 36, -28, -37, 86, -101, 82, 75, -28, -36, 103, 54, -103, 53, 80, 52, 55, -56, 27, 13, 1, 98, 64, 49, 119, 34, 99, -68, 110, -124, -44, 75, 37, -61, -98, -34, -41, 17, 116, 32, -57, 15, -13, 122, -109, -116, 92, -92, 72, 68, 56, 81, -8, -6, -16, -50, 106, 76, -101, 107, -23, 90, 2, -85, 71, -102, 65, -6, -115, -120, 100, -76, 118, 33, -88, -106, -120, 13, -75, -26, -60, -8, 28, -18, -124, 106, -30, 110, 73, -60, 103, 20, 14, -27, 78, 125, 119, 105, -70, 82, -68, -24, -88, 86, -94, 9, -15, 92, -14, -35, 124, 43, 16, 81, -23, -114, 109, -63, -121, -68, 48, -119, 1, 106, -25, -22, -61, -11, 54, -27, -23, -92, -61, -82, 0, 95, -21, 14, -5, 93, 31, -83, 75, -53, 113, 14, 109, 115, 11, -84, 104, -10, 14, -49, 29, 104, 109, -34, -44, 94, 
};
const TfArray<2, int> tensor_dimension4 = { 2, { 20,837 } };
const TfArray<1, float> quant4_scale = { 1, { 0.00066850142320618033, } };
const TfArray<1, int> quant4_zero = { 1, { 0 } };
const TfLiteAffineQuantization quant4 = { (TfLiteFloatArray*)&quant4_scale, (TfLiteIntArray*)&quant4_zero, 0 };
const ALIGN(8) int8_t tensor_data5[10*20] = { 
  -78, -4, 35, 21, 104, -75, -33, 22, -104, -113, -39, -68, 111, 101, -35, 1, -108, 17, -37, 15, 
  -81, 18, -62, 48, 30, 11, 86, -55, -45, -89, 20, -95, -30, -38, -96, -106, -50, 81, 59, -106, 
  -97, 85, 30, -62, 79, -2, 52, -54, 98, 94, -72, -56, 39, -117, 39, -40, -28, 121, -109, -36, 
  -81, -23, -75, -101, -18, 57, 79, 93, 108, -91, 95, 48, 2, -79, -29, 121, 27, 35, 32, -83, 
  18, 8, -67, -94, -123, 106, -44, -8, -73, 121, 6, -120, -107, 45, -20, 23, 23, -111, 120, 29, 
  75, 100, -98, 11, -85, -24, 4, -28, 117, -116, -127, 117, -95, 57, -62, 97, -106, -10, -106, 87, 
  98, -38, 14, 97, 76, -35, 15, 57, 52, 106, -60, 73, -124, -11, -9, -10, 49, -26, 44, -57, 
  -67, 111, -69, -118, -25, -20, -36, -100, 107, 82, 79, 113, -22, -6, -28, -47, -71, 20, -51, 55, 
  -85, 80, 9, 57, 114, -4, 69, -119, -27, -89, 51, 91, 110, 122, -21, 59, -97, 111, -2, 4, 
  -33, 40, 26, 96, -90, 74, 87, -68, 94, -43, -24, 37, -104, -41, -100, 26, 121, 116, -41, 116, 
};
const TfArray<2, int> tensor_dimension5 = { 2, { 10,20 } };
const TfArray<1, float> quant5_scale = { 1, { 0.0034799396526068449, } };
const TfArray<1, int> quant5_zero = { 1, { 0 } };
const TfLiteAffineQuantization quant5 = { (TfLiteFloatArray*)&quant5_scale, (TfLiteIntArray*)&quant5_zero, 0 };
const ALIGN(8) int8_t tensor_data6[2*10] = { 
  -38, -127, -11, -113, 8, -85, 57, 79, 1, 48, 
  74, -114, -12, 105, 103, 68, 60, -4, 30, -3, 
};
const TfArray<2, int> tensor_dimension6 = { 2, { 2,10 } };
const TfArray<1, float> quant6_scale = { 1, { 0.0055131642147898674, } };
const TfArray<1, int> quant6_zero = { 1, { 0 } };
const TfLiteAffineQuantization quant6 = { (TfLiteFloatArray*)&quant6_scale, (TfLiteIntArray*)&quant6_zero, 0 };
const TfArray<2, int> tensor_dimension7 = { 2, { 1,20 } };
const TfArray<1, float> quant7_scale = { 1, { 0.01365269161760807, } };
const TfArray<1, int> quant7_zero = { 1, { -128 } };
const TfLiteAffineQuantization quant7 = { (TfLiteFloatArray*)&quant7_scale, (TfLiteIntArray*)&quant7_zero, 0 };
const TfArray<2, int> tensor_dimension8 = { 2, { 1,10 } };
const TfArray<1, float> quant8_scale = { 1, { 0.011917613446712494, } };
const TfArray<1, int> quant8_zero = { 1, { -128 } };
const TfLiteAffineQuantization quant8 = { (TfLiteFloatArray*)&quant8_scale, (TfLiteIntArray*)&quant8_zero, 0 };
const TfArray<2, int> tensor_dimension9 = { 2, { 1,2 } };
const TfArray<1, float> quant9_scale = { 1, { 0.0043769865296781063, } };
const TfArray<1, int> quant9_zero = { 1, { -128 } };
const TfLiteAffineQuantization quant9 = { (TfLiteFloatArray*)&quant9_scale, (TfLiteIntArray*)&quant9_zero, 0 };
const TfArray<2, int> tensor_dimension10 = { 2, { 1,2 } };
const TfArray<1, float> quant10_scale = { 1, { 0.00390625, } };
const TfArray<1, int> quant10_zero = { 1, { -128 } };
const TfLiteAffineQuantization quant10 = { (TfLiteFloatArray*)&quant10_scale, (TfLiteIntArray*)&quant10_zero, 0 };
const TfLiteFullyConnectedParams opdata0 = { kTfLiteActRelu, kTfLiteFullyConnectedWeightsFormatDefault, false, false };
const TfArray<3, int> inputs0 = { 3, { 0,4,1 } };
const TfArray<1, int> outputs0 = { 1, { 7 } };
const TfLiteFullyConnectedParams opdata1 = { kTfLiteActRelu, kTfLiteFullyConnectedWeightsFormatDefault, false, false };
const TfArray<3, int> inputs1 = { 3, { 7,5,2 } };
const TfArray<1, int> outputs1 = { 1, { 8 } };
const TfLiteFullyConnectedParams opdata2 = { kTfLiteActNone, kTfLiteFullyConnectedWeightsFormatDefault, false, false };
const TfArray<3, int> inputs2 = { 3, { 8,6,3 } };
const TfArray<1, int> outputs2 = { 1, { 9 } };
const TfLiteSoftmaxParams opdata3 = { 1 };
const TfArray<1, int> inputs3 = { 1, { 9 } };
const TfArray<1, int> outputs3 = { 1, { 10 } };
const TensorInfo_t tensorData[] = {
  { kTfLiteArenaRw, kTfLiteInt8, tensor_arena + 0, (TfLiteIntArray*)&tensor_dimension0, 837, {kTfLiteAffineQuantization, const_cast<void*>(static_cast<const void*>(&quant0))}, },
  { kTfLiteMmapRo, kTfLiteInt32, (void*)tensor_data1, (TfLiteIntArray*)&tensor_dimension1, 80, {kTfLiteAffineQuantization, const_cast<void*>(static_cast<const void*>(&quant1))}, },
  { kTfLiteMmapRo, kTfLiteInt32, (void*)tensor_data2, (TfLiteIntArray*)&tensor_dimension2, 40, {kTfLiteAffineQuantization, const_cast<void*>(static_cast<const void*>(&quant2))}, },
  { kTfLiteMmapRo, kTfLiteInt32, (void*)tensor_data3, (TfLiteIntArray*)&tensor_dimension3, 8, {kTfLiteAffineQuantization, const_cast<void*>(static_cast<const void*>(&quant3))}, },
  { kTfLiteMmapRo, kTfLiteInt8, (void*)tensor_data4, (TfLiteIntArray*)&tensor_dimension4, 16740, {kTfLiteAffineQuantization, const_cast<void*>(static_cast<const void*>(&quant4))}, },
  { kTfLiteMmapRo, kTfLiteInt8, (void*)tensor_data5, (TfLiteIntArray*)&tensor_dimension5, 200, {kTfLiteAffineQuantization, const_cast<void*>(static_cast<const void*>(&quant5))}, },
  { kTfLiteMmapRo, kTfLiteInt8, (void*)tensor_data6, (TfLiteIntArray*)&tensor_dimension6, 20, {kTfLiteAffineQuantization, const_cast<void*>(static_cast<const void*>(&quant6))}, },
  { kTfLiteArenaRw, kTfLiteInt8, tensor_arena + 848, (TfLiteIntArray*)&tensor_dimension7, 20, {kTfLiteAffineQuantization, const_cast<void*>(static_cast<const void*>(&quant7))}, },
  { kTfLiteArenaRw, kTfLiteInt8, tensor_arena + 0, (TfLiteIntArray*)&tensor_dimension8, 10, {kTfLiteAffineQuantization, const_cast<void*>(static_cast<const void*>(&quant8))}, },
  { kTfLiteArenaRw, kTfLiteInt8, tensor_arena + 16, (TfLiteIntArray*)&tensor_dimension9, 2, {kTfLiteAffineQuantization, const_cast<void*>(static_cast<const void*>(&quant9))}, },
  { kTfLiteArenaRw, kTfLiteInt8, tensor_arena + 0, (TfLiteIntArray*)&tensor_dimension10, 2, {kTfLiteAffineQuantization, const_cast<void*>(static_cast<const void*>(&quant10))}, },
};const NodeInfo_t nodeData[] = {
  { (TfLiteIntArray*)&inputs0, (TfLiteIntArray*)&outputs0, const_cast<void*>(static_cast<const void*>(&opdata0)), OP_FULLY_CONNECTED, },
  { (TfLiteIntArray*)&inputs1, (TfLiteIntArray*)&outputs1, const_cast<void*>(static_cast<const void*>(&opdata1)), OP_FULLY_CONNECTED, },
  { (TfLiteIntArray*)&inputs2, (TfLiteIntArray*)&outputs2, const_cast<void*>(static_cast<const void*>(&opdata2)), OP_FULLY_CONNECTED, },
  { (TfLiteIntArray*)&inputs3, (TfLiteIntArray*)&outputs3, const_cast<void*>(static_cast<const void*>(&opdata3)), OP_SOFTMAX, },
};
static std::vector<void*> overflow_buffers;
static void * AllocatePersistentBuffer(struct TfLiteContext* ctx,
                                       size_t bytes) {
  void *ptr;
  if (current_location - bytes < tensor_boundary) {
    // OK, this will look super weird, but.... we have CMSIS-NN buffers which
    // we cannot calculate beforehand easily.
    ptr = ei_calloc(bytes, 1);
    if (ptr == NULL) {
      printf("ERR: Failed to allocate persistent buffer of size %d\n", (int)bytes);
      return NULL;
    }
    overflow_buffers.push_back(ptr);
    return ptr;
  }

  current_location -= bytes;

  ptr = current_location;
  memset(ptr, 0, bytes);

  return ptr;
}
typedef struct {
  size_t bytes;
  void *ptr;
} scratch_buffer_t;
static std::vector<scratch_buffer_t> scratch_buffers;

static TfLiteStatus RequestScratchBufferInArena(struct TfLiteContext* ctx, size_t bytes,
                                                int* buffer_idx) {
  scratch_buffer_t b;
  b.bytes = bytes;

  b.ptr = AllocatePersistentBuffer(ctx, b.bytes);
  if (!b.ptr) {
    return kTfLiteError;
  }

  scratch_buffers.push_back(b);

  *buffer_idx = scratch_buffers.size() - 1;

  return kTfLiteOk;
}

static void* GetScratchBuffer(struct TfLiteContext* ctx, int buffer_idx) {
  if (buffer_idx > static_cast<int>(scratch_buffers.size()) - 1) {
    return NULL;
  }
  return scratch_buffers[buffer_idx].ptr;
}

static TfLiteTensor* GetTensor(const struct TfLiteContext* context,
                               int tensor_idx) {
  return &tflTensors[tensor_idx];
}

static TfLiteEvalTensor* GetEvalTensor(const struct TfLiteContext* context,
                                       int tensor_idx) {
  return &tflEvalTensors[tensor_idx];
}

} // namespace

TfLiteStatus trained_model_init( void*(*alloc_fnc)(size_t,size_t) ) {
#ifdef EI_CLASSIFIER_ALLOCATION_HEAP
  tensor_arena = (uint8_t*) alloc_fnc(16, kTensorArenaSize);
  if (!tensor_arena) {
    printf("ERR: failed to allocate tensor arena\n");
    return kTfLiteError;
  }
#else
  memset(tensor_arena, 0, kTensorArenaSize);
#endif
  tensor_boundary = tensor_arena;
  current_location = tensor_arena + kTensorArenaSize;
  ctx.AllocatePersistentBuffer = &AllocatePersistentBuffer;
  ctx.RequestScratchBufferInArena = &RequestScratchBufferInArena;
  ctx.GetScratchBuffer = &GetScratchBuffer;
  ctx.GetTensor = &GetTensor;
  ctx.GetEvalTensor = &GetEvalTensor;
  ctx.tensors = tflTensors;
  ctx.tensors_size = 11;
  for(size_t i = 0; i < 11; ++i) {
    tflTensors[i].type = tensorData[i].type;
    tflEvalTensors[i].type = tensorData[i].type;
    tflTensors[i].is_variable = 0;

#if defined(EI_CLASSIFIER_ALLOCATION_HEAP)
    tflTensors[i].allocation_type = tensorData[i].allocation_type;
#else
    tflTensors[i].allocation_type = (tensor_arena <= tensorData[i].data && tensorData[i].data < tensor_arena + kTensorArenaSize) ? kTfLiteArenaRw : kTfLiteMmapRo;
#endif
    tflTensors[i].bytes = tensorData[i].bytes;
    tflTensors[i].dims = tensorData[i].dims;
    tflEvalTensors[i].dims = tensorData[i].dims;

#if defined(EI_CLASSIFIER_ALLOCATION_HEAP)
    if(tflTensors[i].allocation_type == kTfLiteArenaRw){
      uint8_t* start = (uint8_t*) ((uintptr_t)tensorData[i].data + (uintptr_t) tensor_arena);

     tflTensors[i].data.data =  start;
     tflEvalTensors[i].data.data =  start;
    }
    else{
       tflTensors[i].data.data = tensorData[i].data;
       tflEvalTensors[i].data.data = tensorData[i].data;
    }
#else
    tflTensors[i].data.data = tensorData[i].data;
    tflEvalTensors[i].data.data = tensorData[i].data;
#endif // EI_CLASSIFIER_ALLOCATION_HEAP
    tflTensors[i].quantization = tensorData[i].quantization;
    if (tflTensors[i].quantization.type == kTfLiteAffineQuantization) {
      TfLiteAffineQuantization const* quant = ((TfLiteAffineQuantization const*)(tensorData[i].quantization.params));
      tflTensors[i].params.scale = quant->scale->data[0];
      tflTensors[i].params.zero_point = quant->zero_point->data[0];
    }
    if (tflTensors[i].allocation_type == kTfLiteArenaRw) {
      auto data_end_ptr = (uint8_t*)tflTensors[i].data.data + tensorData[i].bytes;
      if (data_end_ptr > tensor_boundary) {
        tensor_boundary = data_end_ptr;
      }
    }
  }
  if (tensor_boundary > current_location /* end of arena size */) {
    printf("ERR: tensor arena is too small, does not fit model - even without scratch buffers\n");
    return kTfLiteError;
  }
  registrations[OP_FULLY_CONNECTED] = Register_FULLY_CONNECTED();
  registrations[OP_SOFTMAX] = Register_SOFTMAX();

  for(size_t i = 0; i < 4; ++i) {
    tflNodes[i].inputs = nodeData[i].inputs;
    tflNodes[i].outputs = nodeData[i].outputs;
    tflNodes[i].builtin_data = nodeData[i].builtin_data;
    tflNodes[i].custom_initial_data = nullptr;
    tflNodes[i].custom_initial_data_size = 0;
    if (registrations[nodeData[i].used_op_index].init) {
      tflNodes[i].user_data = registrations[nodeData[i].used_op_index].init(&ctx, (const char*)tflNodes[i].builtin_data, 0);
    }
  }
  for(size_t i = 0; i < 4; ++i) {
    if (registrations[nodeData[i].used_op_index].prepare) {
      TfLiteStatus status = registrations[nodeData[i].used_op_index].prepare(&ctx, &tflNodes[i]);
      if (status != kTfLiteOk) {
        return status;
      }
    }
  }
  return kTfLiteOk;
}

static const int inTensorIndices[] = {
  0, 
};
TfLiteTensor* trained_model_input(int index) {
  return &ctx.tensors[inTensorIndices[index]];
}

static const int outTensorIndices[] = {
  10, 
};
TfLiteTensor* trained_model_output(int index) {
  return &ctx.tensors[outTensorIndices[index]];
}

TfLiteStatus trained_model_invoke() {
  for(size_t i = 0; i < 4; ++i) {
    TfLiteStatus status = registrations[nodeData[i].used_op_index].invoke(&ctx, &tflNodes[i]);

#if EI_CLASSIFIER_PRINT_STATE
    ei_printf("layer %lu\n", i);
    ei_printf("    inputs:\n");
    for (size_t ix = 0; ix < tflNodes[i].inputs->size; ix++) {
      auto d = tensorData[tflNodes[i].inputs->data[ix]];

      size_t data_ptr = (size_t)d.data;

      if (d.allocation_type == kTfLiteArenaRw) {
        data_ptr = (size_t)tensor_arena + data_ptr;
      }

      if (d.type == TfLiteType::kTfLiteInt8) {
        int8_t* data = (int8_t*)data_ptr;
        ei_printf("        %lu (%zu bytes, ptr=%p, alloc_type=%d, type=%d): ", ix, d.bytes, data, (int)d.allocation_type, (int)d.type);
        for (size_t jx = 0; jx < d.bytes; jx++) {
          ei_printf("%d ", data[jx]);
        }
      }
      else {
        float* data = (float*)data_ptr;
        ei_printf("        %lu (%zu bytes, ptr=%p, alloc_type=%d, type=%d): ", ix, d.bytes, data, (int)d.allocation_type, (int)d.type);
        for (size_t jx = 0; jx < d.bytes / 4; jx++) {
          ei_printf("%f ", data[jx]);
        }
      }
      ei_printf("\n");
    }
    ei_printf("\n");

    ei_printf("    outputs:\n");
    for (size_t ix = 0; ix < tflNodes[i].outputs->size; ix++) {
      auto d = tensorData[tflNodes[i].outputs->data[ix]];

      size_t data_ptr = (size_t)d.data;

      if (d.allocation_type == kTfLiteArenaRw) {
        data_ptr = (size_t)tensor_arena + data_ptr;
      }

      if (d.type == TfLiteType::kTfLiteInt8) {
        int8_t* data = (int8_t*)data_ptr;
        ei_printf("        %lu (%zu bytes, ptr=%p, alloc_type=%d, type=%d): ", ix, d.bytes, data, (int)d.allocation_type, (int)d.type);
        for (size_t jx = 0; jx < d.bytes; jx++) {
          ei_printf("%d ", data[jx]);
        }
      }
      else {
        float* data = (float*)data_ptr;
        ei_printf("        %lu (%zu bytes, ptr=%p, alloc_type=%d, type=%d): ", ix, d.bytes, data, (int)d.allocation_type, (int)d.type);
        for (size_t jx = 0; jx < d.bytes / 4; jx++) {
          ei_printf("%f ", data[jx]);
        }
      }
      ei_printf("\n");
    }
    ei_printf("\n");
#endif // EI_CLASSIFIER_PRINT_STATE

    if (status != kTfLiteOk) {
      return status;
    }
  }
  return kTfLiteOk;
}

TfLiteStatus trained_model_reset( void (*free_fnc)(void* ptr) ) {
#ifdef EI_CLASSIFIER_ALLOCATION_HEAP
  free_fnc(tensor_arena);
#endif
  scratch_buffers.clear();
  for (size_t ix = 0; ix < overflow_buffers.size(); ix++) {
    free(overflow_buffers[ix]);
  }
  overflow_buffers.clear();
  return kTfLiteOk;
}
